{"learner":{"attributes":{"best_iteration":"795","best_score":"0.4589438934728731","scikit_learn":"{\"_estimator_type\": \"classifier\"}"},"feature_names":[],"feature_types":[],"gradient_booster":{"model":{"cats":{"enc":[],"feature_segments":[],"sorted_idx":[]},"gbtree_model_param":{"num_parallel_tree":"1","num_trees":"846"},"iteration_indptr":[0,1,2,3,4,5,6,7,8,9,10,11,12,13,14,15,16,17,18,19,20,21,22,23,24,25,26,27,28,29,30,31,32,33,34,35,36,37,38,39,40,41,42,43,44,45,46,47,48,49,50,51,52,53,54,55,56,57,58,59,60,61,62,63,64,65,66,67,68,69,70,71,72,73,74,75,76,77,78,79,80,81,82,83,84,85,86,87,88,89,90,91,92,93,94,95,96,97,98,99,100,101,102,103,104,105,106,107,108,109,110,111,112,113,114,115,116,117,118,119,120,121,122,123,124,125,126,127,128,129,130,131,132,133,134,135,136,137,138,139,140,141,142,143,144,145,146,147,148,149,150,151,152,153,154,155,156,157,158,159,160,161,162,163,164,165,166,167,168,169,170,171,172,173,174,175,176,177,178,179,180,181,182,183,184,185,186,187,188,189,190,191,192,193,194,195,196,197,198,199,200,201,202,203,204,205,206,207,208,209,210,211,212,213,214,215,216,217,218,219,220,221,222,223,224,225,226,227,228,229,230,231,232,233,234,235,236,237,238,239,240,241,242,243,244,245,246,247,248,249,250,251,252,253,254,255,256,257,258,259,260,261,262,263,264,265,266,267,268,269,270,271,272,273,274,275,276,277,278,279,280,281,282,283,284,285,286,287,288,289,290,291,292,293,294,295,296,297,298,299,300,301,302,303,304,305,306,307,308,309,310,311,312,313,314,315,316,317,318,319,320,321,322,323,324,325,326,327,328,329,330,331,332,333,334,335,336,337,338,339,340,341,342,343,344,345,346,347,348,349,350,351,352,353,354,355,356,357,358,359,360,361,362,363,364,365,366,367,368,369,370,371,372,373,374,375,376,377,378,379,380,381,382,383,384,385,386,387,388,389,390,391,392,393,394,395,396,397,398,399,400,401,402,403,404,405,406,407,408,409,410,411,412,413,414,415,416,417,418,419,420,421,422,423,424,425,426,427,428,429,430,431,432,433,434,435,436,437,438,439,440,441,442,443,444,445,446,447,448,449,450,451,452,453,454,455,456,457,458,459,460,461,462,463,464,465,466,467,468,469,470,471,472,473,474,475,476,477,478,479,480,481,482,483,484,485,486,487,488,489,490,491,492,493,494,495,496,497,498,499,500,501,502,503,504,505,506,507,508,509,510,511,512,513,514,515,516,517,518,519,520,521,522,523,524,525,526,527,528,529,530,531,532,533,534,535,536,537,538,539,540,541,542,543,544,545,546,547,548,549,550,551,552,553,554,555,556,557,558,559,560,561,562,563,564,565,566,567,568,569,570,571,572,573,574,575,576,577,578,579,580,581,582,583,584,585,586,587,588,589,590,591,592,593,594,595,596,597,598,599,600,601,602,603,604,605,606,607,608,609,610,611,612,613,614,615,616,617,618,619,620,621,622,623,624,625,626,627,628,629,630,631,632,633,634,635,636,637,638,639,640,641,642,643,644,645,646,647,648,649,650,651,652,653,654,655,656,657,658,659,660,661,662,663,664,665,666,667,668,669,670,671,672,673,674,675,676,677,678,679,680,681,682,683,684,685,686,687,688,689,690,691,692,693,694,695,696,697,698,699,700,701,702,703,704,705,706,707,708,709,710,711,712,713,714,715,716,717,718,719,720,721,722,723,724,725,726,727,728,729,730,731,732,733,734,735,736,737,738,739,740,741,742,743,744,745,746,747,748,749,750,751,752,753,754,755,756,757,758,759,760,761,762,763,764,765,766,767,768,769,770,771,772,773,774,775,776,777,778,779,780,781,782,783,784,785,786,787,788,789,790,791,792,793,794,795,796,797,798,799,800,801,802,803,804,805,806,807,808,809,810,811,812,813,814,815,816,817,818,819,820,821,822,823,824,825,826,827,828,829,830,831,832,833,834,835,836,837,838,839,840,841,842,843,844,845,846],"tree_info":[0,0,0,0,0,0,0,0,0,0,0,0,0,0,0,0,0,0,0,0,0,0,0,0,0,0,0,0,0,0,0,0,0,0,0,0,0,0,0,0,0,0,0,0,0,0,0,0,0,0,0,0,0,0,0,0,0,0,0,0,0,0,0,0,0,0,0,0,0,0,0,0,0,0,0,0,0,0,0,0,0,0,0,0,0,0,0,0,0,0,0,0,0,0,0,0,0,0,0,0,0,0,0,0,0,0,0,0,0,0,0,0,0,0,0,0,0,0,0,0,0,0,0,0,0,0,0,0,0,0,0,0,0,0,0,0,0,0,0,0,0,0,0,0,0,0,0,0,0,0,0,0,0,0,0,0,0,0,0,0,0,0,0,0,0,0,0,0,0,0,0,0,0,0,0,0,0,0,0,0,0,0,0,0,0,0,0,0,0,0,0,0,0,0,0,0,0,0,0,0,0,0,0,0,0,0,0,0,0,0,0,0,0,0,0,0,0,0,0,0,0,0,0,0,0,0,0,0,0,0,0,0,0,0,0,0,0,0,0,0,0,0,0,0,0,0,0,0,0,0,0,0,0,0,0,0,0,0,0,0,0,0,0,0,0,0,0,0,0,0,0,0,0,0,0,0,0,0,0,0,0,0,0,0,0,0,0,0,0,0,0,0,0,0,0,0,0,0,0,0,0,0,0,0,0,0,0,0,0,0,0,0,0,0,0,0,0,0,0,0,0,0,0,0,0,0,0,0,0,0,0,0,0,0,0,0,0,0,0,0,0,0,0,0,0,0,0,0,0,0,0,0,0,0,0,0,0,0,0,0,0,0,0,0,0,0,0,0,0,0,0,0,0,0,0,0,0,0,0,0,0,0,0,0,0,0,0,0,0,0,0,0,0,0,0,0,0,0,0,0,0,0,0,0,0,0,0,0,0,0,0,0,0,0,0,0,0,0,0,0,0,0,0,0,0,0,0,0,0,0,0,0,0,0,0,0,0,0,0,0,0,0,0,0,0,0,0,0,0,0,0,0,0,0,0,0,0,0,0,0,0,0,0,0,0,0,0,0,0,0,0,0,0,0,0,0,0,0,0,0,0,0,0,0,0,0,0,0,0,0,0,0,0,0,0,0,0,0,0,0,0,0,0,0,0,0,0,0,0,0,0,0,0,0,0,0,0,0,0,0,0,0,0,0,0,0,0,0,0,0,0,0,0,0,0,0,0,0,0,0,0,0,0,0,0,0,0,0,0,0,0,0,0,0,0,0,0,0,0,0,0,0,0,0,0,0,0,0,0,0,0,0,0,0,0,0,0,0,0,0,0,0,0,0,0,0,0,0,0,0,0,0,0,0,0,0,0,0,0,0,0,0,0,0,0,0,0,0,0,0,0,0,0,0,0,0,0,0,0,0,0,0,0,0,0,0,0,0,0,0,0,0,0,0,0,0,0,0,0,0,0,0,0,0,0,0,0,0,0,0,0,0,0,0,0,0,0,0,0,0,0,0,0,0,0,0,0,0,0,0,0,0,0,0,0,0,0,0,0,0,0,0,0,0,0,0,0,0,0,0,0,0,0,0,0,0,0,0,0,0,0,0,0,0,0,0,0,0,0,0,0,0,0,0,0,0,0,0,0,0,0,0,0,0,0,0,0,0,0,0,0,0,0,0,0,0,0,0,0,0,0,0,0,0,0,0,0,0,0,0,0,0,0,0,0,0,0,0,0,0,0,0,0,0,0,0,0,0,0,0,0,0,0,0,0,0,0,0,0,0,0,0,0,0,0,0,0,0,0,0,0,0,0,0,0,0,0,0,0,0,0,0,0,0,0,0,0,0,0,0,0,0,0,0,0,0,0,0,0,0,0,0,0,0,0,0,0,0,0,0,0,0,0,0,0,0,0,0,0,0,0,0,0,0,0,0],"trees":[{"base_weights":[7.1583415E-4,-6.3540626E-1,6.6820675E-1,-2.981687E-1,-1.1383927E0,3.20172E-1,1.149956E0,-1.2795517E-1,-5.276592E-1,-1.3222339E0,-4.5536736E-1,1.6747288E-1,5.642305E-1,5.55813E-1,1.3107375E0,-3.904265E-4,-6.992934E-3,-1.8855473E-2,-4.0813275E-3,-3.2190945E-2,-4.5201667E-2,-2.0528607E-2,-6.4253774E-3,2.0374584E-3,8.995375E-3,2.2779686E-2,1.0753723E-2,2.072364E-2,5.502808E-3,3.395173E-2,4.7426548E-2],"categories":[],"categories_nodes":[],"categories_segments":[],"categories_sizes":[],"default_left":[0,0,0,0,0,0,0,0,0,0,0,0,0,0,0,0,0,0,0,0,0,0,0,0,0,0,0,0,0,0,0],"id":0,"left_children":[1,3,5,7,9,11,13,15,17,19,21,23,25,27,29,-1,-1,-1,-1,-1,-1,-1,-1,-1,-1,-1,-1,-1,-1,-1,-1],"loss_changes":[4.297581E4,8.790436E3,8.280459E3,1.2118518E3,2.61125E3,1.0685603E3,1.9780938E3,2.1528851E2,5.217378E2,7.518418E2,2.4349304E2,2.324589E2,4.427556E2,2.2170825E2,7.8658594E2,0E0,0E0,0E0,0E0,0E0,0E0,0E0,0E0,0E0,0E0,0E0,0E0,0E0,0E0,0E0,0E0],"parents":[2147483647,0,0,1,1,2,2,3,3,4,4,5,5,6,6,7,7,8,8,9,9,10,10,11,11,12,12,13,13,14,14],"right_children":[2,4,6,8,10,12,14,16,18,20,22,24,26,28,30,-1,-1,-1,-1,-1,-1,-1,-1,-1,-1,-1,-1,-1,-1,-1,-1],"split_conditions":[2.3802335E-5,9.7178516E-4,9.297665E-4,4.3729815E-4,-5.5077224E-4,4.6902453E-4,5.6640647E-4,1.8509546E-4,6.357788E-5,1.7350801E-3,-2.6079547E-4,2.458579E-4,3.6609345E-4,6.224514E-4,2.1405737E-3,-3.904265E-4,-6.992934E-3,-1.8855473E-2,-4.0813275E-3,-3.2190945E-2,-4.5201667E-2,-2.0528607E-2,-6.4253774E-3,2.0374584E-3,8.995375E-3,2.2779686E-2,1.0753723E-2,2.072364E-2,5.502808E-3,3.395173E-2,4.7426548E-2],"split_indices":[4,1,1,1,4,1,4,1,3,1,4,1,5,5,1,0,0,0,0,0,0,0,0,0,0,0,0,0,0,0,0],"split_type":[0,0,0,0,0,0,0,0,0,0,0,0,0,0,0,0,0,0,0,0,0,0,0,0,0,0,0,0,0,0,0],"sum_hessian":[1.0121145E5,5.1823477E4,4.9387977E4,3.1024234E4,2.079924E4,2.8674236E4,2.071374E4,1.7813492E4,1.3210744E4,1.6387492E4,4.411748E3,1.7639492E4,1.1034745E4,4.412498E3,1.6301242E4,8.510746E3,9.302745E3,1.0504745E4,2.7059988E3,6.9739966E3,9.413495E3,2.262499E3,2.149249E3,1.0068495E4,7.5709966E3,5.662997E3,5.3717476E3,3.2379985E3,1.1744994E3,9.807495E3,6.493747E3],"tree_param":{"num_deleted":"0","num_feature":"8","num_nodes":"31","size_leaf_vector":"1"}},{"base_weights":[2.466314E-4,-1.0530666E0,1.0520198E0,-5.7217485E-1,-1.4528092E0,5.635812E-1,1.45111E0,-2.5733474E-1,-7.423338E-1,-1.2271651E0,-1.6794853E0,3.2513386E-1,7.7079016E-1,1.225E0,1.6776245E0,-3.150947E-3,-1.035363E-2,-2.824942E-2,-1.8961376E-2,-4.163946E-2,-3.0231614E-2,-4.7221027E-2,-5.4089934E-2,6.5575177E-3,1.3146969E-2,2.8977757E-2,1.7771522E-2,4.239533E-2,3.2161936E-2,4.6363465E-2,5.396966E-2],"categories":[],"categories_nodes":[],"categories_segments":[],"categories_sizes":[],"default_left":[0,0,0,0,0,0,0,0,0,0,0,0,0,0,0,0,0,0,0,0,0,0,0,0,0,0,0,0,0,0,0],"id":1,"left_children":[1,3,5,7,9,11,13,15,17,19,21,23,25,27,29,-1,-1,-1,-1,-1,-1,-1,-1,-1,-1,-1,-1,-1,-1,-1,-1],"loss_changes":[1.12227195E5,9.728848E3,9.879867E3,1.2307344E3,1.4115898E3,1.125978E3,1.4266406E3,1.0776373E2,3.2726172E2,4.8752734E2,1.7670312E2,1.2764075E2,4.2398633E2,4.0034375E2,2.2071484E2,0E0,0E0,0E0,0E0,0E0,0E0,0E0,0E0,0E0,0E0,0E0,0E0,0E0,0E0,0E0,0E0],"parents":[2147483647,0,0,1,1,2,2,3,3,4,4,5,5,6,6,7,7,8,8,9,9,10,10,11,11,12,12,13,13,14,14],"right_children":[2,4,6,8,10,12,14,16,18,20,22,24,26,28,30,-1,-1,-1,-1,-1,-1,-1,-1,-1,-1,-1,-1,-1,-1,-1,-1],"split_conditions":[0E0,6.435954E-4,6.2065484E-4,1.8509546E-4,1.4541966E-3,2.458579E-4,1.3876997E-3,6.5320346E-5,2.5789996E-4,4.588897E-4,2.4405196E-3,1.18512515E-4,3.1035193E-4,3.6609345E-4,2.1748324E-3,-3.150947E-3,-1.035363E-2,-2.824942E-2,-1.8961376E-2,-4.163946E-2,-3.0231614E-2,-4.7221027E-2,-5.4089934E-2,6.5575177E-3,1.3146969E-2,2.8977757E-2,1.7771522E-2,4.239533E-2,3.2161936E-2,4.6363465E-2,5.396966E-2],"split_indices":[0,1,1,1,1,1,1,1,5,5,1,1,5,5,1,0,0,0,0,0,0,0,0,0,0,0,0,0,0,0,0],"split_type":[0,0,0,0,0,0,0,0,0,0,0,0,0,0,0,0,0,0,0,0,0,0,0,0,0,0,0,0,0,0,0],"sum_hessian":[1.0130009E5,5.0612992E4,5.0687105E4,2.2975643E4,2.763735E4,2.2793275E4,2.789383E4,8.0617456E3,1.4913896E4,1.3853412E4,1.37839375E4,1.0598981E4,1.2194295E4,1.3962584E4,1.3931245E4,2.9484985E3,5.113247E3,5.3100244E3,9.603872E3,7.9915713E3,5.8618413E3,7.44305E3,6.3408877E3,5.4589976E3,5.139984E3,5.82198E3,6.372315E3,6.256321E3,7.706263E3,6.675173E3,7.2560723E3],"tree_param":{"num_deleted":"0","num_feature":"8","num_nodes":"31","size_leaf_vector":"1"}},{"base_weights":[-8.131509E-5,-1.0223279E0,1.0205971E0,-5.5291843E-1,-1.4123125E0,5.840342E-1,1.4435115E0,-3.0848545E-1,-7.636595E-1,-1.1735535E0,-1.6153764E0,3.5758162E-1,8.3234036E-1,1.2553043E0,1.667521E0,-5.2908994E-3,-1.3488116E-2,-2.7857855E-2,-1.8046541E-2,-3.9818212E-2,-2.8283644E-2,-4.470103E-2,-5.1736314E-2,6.6885133E-3,1.4226782E-2,3.1023601E-2,1.9894851E-2,4.2293247E-2,3.2243937E-2,4.62359E-2,5.2470062E-2],"categories":[],"categories_nodes":[],"categories_segments":[],"categories_sizes":[],"default_left":[0,0,0,0,0,0,0,0,0,0,0,0,0,0,0,0,0,0,0,0,0,0,0,0,0,0,0,0,0,0,0],"id":2,"left_children":[1,3,5,7,9,11,13,15,17,19,21,23,25,27,29,-1,-1,-1,-1,-1,-1,-1,-1,-1,-1,-1,-1,-1,-1,-1,-1],"loss_changes":[1.0563708E5,9.259145E3,9.352664E3,1.1822705E3,1.3376289E3,1.4015059E3,1.0827773E3,1.9811621E2,3.2903076E2,4.4932422E2,2.016875E2,2.046825E2,4.0521777E2,3.885E2,1.18203125E2,0E0,0E0,0E0,0E0,0E0,0E0,0E0,0E0,0E0,0E0,0E0,0E0,0E0,0E0,0E0,0E0],"parents":[2147483647,0,0,1,1,2,2,3,3,4,4,5,5,6,6,7,7,8,8,9,9,10,10,11,11,12,12,13,13,14,14],"right_children":[2,4,6,8,10,12,14,16,18,20,22,24,26,28,30,-1,-1,-1,-1,-1,-1,-1,-1,-1,-1,-1,-1,-1,-1,-1,-1],"split_conditions":[0E0,6.435954E-4,7.054496E-4,2.5092257E-4,1.3541173E-3,3.1057606E-4,1.5859426E-3,1.2362741E-4,3.283018E-4,4.6807178E-4,2.1405737E-3,1.3322805E-4,3.1035193E-4,4.3312163E-4,2.2012417E-3,-5.2908994E-3,-1.3488116E-2,-2.7857855E-2,-1.8046541E-2,-3.9818212E-2,-2.8283644E-2,-4.470103E-2,-5.1736314E-2,6.6885133E-3,1.4226782E-2,3.1023601E-2,1.9894851E-2,4.2293247E-2,3.2243937E-2,4.62359E-2,5.2470062E-2],"split_indices":[0,1,0,1,1,0,1,1,5,5,1,1,5,5,0,0,0,0,0,0,0,0,0,0,0,0,0,0,0,0,0],"split_type":[0,0,0,0,0,0,0,0,0,0,0,0,0,0,0,0,0,0,0,0,0,0,0,0,0,0,0,0,0,0,0],"sum_hessian":[1.01242586E5,5.0582434E4,5.0660152E4,2.295491E4,2.7627523E4,2.4929008E4,2.5731145E4,1.0629035E4,1.2325875E4,1.2700853E4,1.4926671E4,1.3039532E4,1.1889476E4,1.3986579E4,1.1744565E4,5.490657E3,5.138378E3,6.1073086E3,6.2185664E3,7.620102E3,5.0807505E3,6.9553965E3,7.9712744E3,6.054423E3,6.9851094E3,5.419961E3,6.4695146E3,7.5331685E3,6.4534106E3,4.6128843E3,7.131681E3],"tree_param":{"num_deleted":"0","num_feature":"8","num_nodes":"31","size_leaf_vector":"1"}},{"base_weights":[1.586968E-3,-9.9061084E-1,9.930085E-1,-5.482076E-1,-1.3776212E0,5.714321E-1,1.4028155E0,-1.5174754E0,-4.3819472E-1,-1.6817515E0,-1.049539E0,1.553364E0,4.6121427E-1,1.6935157E0,1.0839918E0,-5.877093E-2,-3.323351E-2,-6.3751987E-3,-1.9404469E-2,-5.344082E-2,-4.4156864E-2,-2.6620492E-2,-4.112013E-2,5.8642972E-2,3.489247E-2,7.497458E-3,2.0710822E-2,5.466231E-2,4.6713352E-2,2.7232012E-2,4.0923156E-2],"categories":[],"categories_nodes":[],"categories_segments":[],"categories_sizes":[],"default_left":[0,0,0,0,0,0,0,0,0,0,0,0,0,0,0,0,0,0,0,0,0,0,0,0,0,0,0,0,0,0,0],"id":3,"left_children":[1,3,5,7,9,11,13,15,17,19,21,23,25,27,29,-1,-1,-1,-1,-1,-1,-1,-1,-1,-1,-1,-1,-1,-1,-1,-1],"loss_changes":[9.935537E4,8.642461E3,8.727512E3,2.5112441E3,2.6849023E3,2.6946343E3,2.3724531E3,4.3213525E2,9.960054E2,2.894297E2,6.7356445E2,3.913999E2,1.0840532E3,2.3211719E2,6.021172E2,0E0,0E0,0E0,0E0,0E0,0E0,0E0,0E0,0E0,0E0,0E0,0E0,0E0,0E0,0E0,0E0],"parents":[2147483647,0,0,1,1,2,2,3,3,4,4,5,5,6,6,7,7,8,8,9,9,10,10,11,11,12,12,13,13,14,14],"right_children":[2,4,6,8,10,12,14,16,18,20,22,24,26,28,30,-1,-1,-1,-1,-1,-1,-1,-1,-1,-1,-1,-1,-1,-1,-1,-1],"split_conditions":[0E0,6.663331E-4,7.054496E-4,3E0,7E0,3E0,7E0,2E0,2.6710305E-4,5E0,1.7129414E-3,2E0,3.0432324E-4,4E0,1.5859426E-3,-5.877093E-2,-3.323351E-2,-6.3751987E-3,-1.9404469E-2,-5.344082E-2,-4.4156864E-2,-2.6620492E-2,-4.112013E-2,5.8642972E-2,3.489247E-2,7.497458E-3,2.0710822E-2,5.466231E-2,4.6713352E-2,2.7232012E-2,4.0923156E-2],"split_indices":[0,1,0,7,7,7,7,7,1,7,1,7,1,7,1,0,0,0,0,0,0,0,0,0,0,0,0,0,0,0,0],"split_type":[0,0,0,0,0,0,0,0,0,0,0,0,0,0,0,0,0,0,0,0,0,0,0,0,0,0,0,0,0,0,0],"sum_hessian":[1.010011E5,5.0480785E4,5.0520312E4,2.3555824E4,2.6924963E4,2.4903742E4,2.561657E4,2.3997798E3,2.1156043E4,1.3970379E4,1.2954584E4,2.5119207E3,2.2391822E4,1.3397009E4,1.2219562E4,1.1531553E3,1.2466244E3,1.0163305E4,1.0992739E4,9.468577E3,4.501802E3,8.609886E3,4.3446987E3,1.2363428E3,1.2755779E3,1.1650674E4,1.0741147E4,6.8904023E3,6.506606E3,7.502775E3,4.7167866E3],"tree_param":{"num_deleted":"0","num_feature":"8","num_nodes":"31","size_leaf_vector":"1"}},{"base_weights":[-1.8430791E-3,-9.666268E-1,9.6416414E-1,-1.3788581E0,-5.680705E-1,5.1492155E-1,1.3327281E0,-1.6565356E0,-1.0667561E0,-1.5055348E0,-4.586193E-1,1.4756782E0,4.0986884E-1,1.5868158E0,9.63238E-1,-5.3536713E-2,-4.559803E-2,-2.721637E-2,-4.009414E-2,-5.7033837E-2,-3.396925E-2,-2.0435616E-2,-7.0307353E-3,5.707516E-2,3.196433E-2,5.7298713E-3,1.7826226E-2,5.1607646E-2,4.1781873E-2,2.4267804E-2,3.818405E-2],"categories":[],"categories_nodes":[],"categories_segments":[],"categories_sizes":[],"default_left":[0,0,0,0,0,0,0,0,0,0,0,0,0,0,0,0,0,0,0,0,0,0,0,0,0,0,0,0,0,0,0],"id":4,"left_children":[1,3,5,7,9,11,13,15,17,19,21,23,25,27,29,-1,-1,-1,-1,-1,-1,-1,-1,-1,-1,-1,-1,-1,-1,-1,-1],"loss_changes":[9.397168E4,8.287461E3,8.34141E3,2.14725E3,2.631211E3,2.291295E3,2.5967695E3,2.2673438E2,5.0129492E2,3.9371875E2,1.1463608E3,3.897832E2,8.25824E2,4.2226953E2,5.3778516E2,0E0,0E0,0E0,0E0,0E0,0E0,0E0,0E0,0E0,0E0,0E0,0E0,0E0,0E0,0E0,0E0],"parents":[2147483647,0,0,1,1,2,2,3,3,4,4,5,5,6,6,7,7,8,8,9,9,10,10,11,11,12,12,13,13,14,14],"right_children":[2,4,6,8,10,12,14,16,18,20,22,24,26,28,30,-1,-1,-1,-1,-1,-1,-1,-1,-1,-1,-1,-1,-1,-1,-1,-1],"split_conditions":[0E0,-7.549001E-4,6.2065484E-4,7E0,3E0,3E0,8E0,4E0,1.7129414E-3,2E0,-3.061823E-4,2E0,2.3746632E-4,5E0,1.5859426E-3,-5.3536713E-2,-4.559803E-2,-2.721637E-2,-4.009414E-2,-5.7033837E-2,-3.396925E-2,-2.0435616E-2,-7.0307353E-3,5.707516E-2,3.196433E-2,5.7298713E-3,1.7826226E-2,5.1607646E-2,4.1781873E-2,2.4267804E-2,3.818405E-2],"split_indices":[0,0,1,7,7,7,7,7,1,7,0,7,0,7,1,0,0,0,0,0,0,0,0,0,0,0,0,0,0,0,0],"split_type":[0,0,0,0,0,0,0,0,0,0,0,0,0,0,0,0,0,0,0,0,0,0,0,0,0,0,0,0,0,0,0],"sum_hessian":[1.0082728E5,5.0445586E4,5.0381695E4,2.4796168E4,2.5649418E4,2.2706791E4,2.7674904E4,1.3119463E4,1.1676704E4,2.68022E3,2.2969197E4,2.2368347E3,2.0469957E4,1.6396328E4,1.1278575E4,6.7661836E3,6.35328E3,7.339537E3,4.3371675E3,1.2991355E3,1.3810844E3,1.1527104E4,1.1442094E4,1.0944186E3,1.1424163E3,9.3593E3,1.1110656E4,9.71155E3,6.6847783E3,7.529091E3,3.7494844E3],"tree_param":{"num_deleted":"0","num_feature":"8","num_nodes":"31","size_leaf_vector":"1"}},{"base_weights":[-4.2374324E-4,-9.3691766E-1,9.358956E-1,-5.0460196E-1,-1.2994698E0,5.3553516E-1,1.3327801E0,-1.4261225E0,-4.0042344E-1,-1.5921052E0,-9.888652E-1,1.271385E0,4.0048516E-1,1.5641236E0,9.805814E-1,-5.5654567E-2,-3.0837381E-2,-1.7518075E-2,-5.3146277E-3,-5.1921047E-2,-4.3400336E-2,-2.5099067E-2,-3.906291E-2,5.5502336E-2,3.0082121E-2,6.415641E-3,1.8332276E-2,5.067421E-2,4.142686E-2,2.4715219E-2,3.7307497E-2],"categories":[],"categories_nodes":[],"categories_segments":[],"categories_sizes":[],"default_left":[0,0,0,0,0,0,0,0,0,0,0,0,0,0,0,0,0,0,0,0,0,0,0,0,0,0,0,0,0,0,0],"id":5,"left_children":[1,3,5,7,9,11,13,15,17,19,21,23,25,27,29,-1,-1,-1,-1,-1,-1,-1,-1,-1,-1,-1,-1,-1,-1,-1,-1],"loss_changes":[8.824486E4,7.8854297E3,7.995535E3,2.2027588E3,2.4856797E3,2.4892417E3,2.057504E3,3.962744E2,8.4479614E2,2.8145312E2,6.320117E2,6.020635E2,8.3191064E2,3.470039E2,4.1208105E2,0E0,0E0,0E0,0E0,0E0,0E0,0E0,0E0,0E0,0E0,0E0,0E0,0E0,0E0,0E0,0E0],"parents":[2147483647,0,0,1,1,2,2,3,3,4,4,5,5,6,6,7,7,8,8,9,9,10,10,11,11,12,12,13,13,14,14],"right_children":[2,4,6,8,10,12,14,16,18,20,22,24,26,28,30,-1,-1,-1,-1,-1,-1,-1,-1,-1,-1,-1,-1,-1,-1,-1,-1],"split_conditions":[0E0,6.435954E-4,7.134095E-4,3E0,7E0,4E0,8E0,2E0,-2.4114754E-4,4E0,1.7129414E-3,2E0,3.1057606E-4,5E0,1.5859426E-3,-5.5654567E-2,-3.0837381E-2,-1.7518075E-2,-5.3146277E-3,-5.1921047E-2,-4.3400336E-2,-2.5099067E-2,-3.906291E-2,5.5502336E-2,3.0082121E-2,6.415641E-3,1.8332276E-2,5.067421E-2,4.142686E-2,2.4715219E-2,3.7307497E-2],"split_indices":[0,1,1,7,7,7,7,7,0,7,1,7,0,7,1,0,0,0,0,0,0,0,0,0,0,0,0,0,0,0,0],"split_type":[0,0,0,0,0,0,0,0,0,0,0,0,0,0,0,0,0,0,0,0,0,0,0,0,0,0,0,0,0,0,0],"sum_hessian":[1.0063563E5,5.0313125E4,5.0322508E4,2.2949725E4,2.73634E4,2.505272E4,2.5269787E4,2.329675E3,2.062005E4,1.4087129E4,1.3276272E4,3.883608E3,2.1169113E4,1.5249582E4,1.0020205E4,1.119679E3,1.2099962E3,1.1316788E4,9.303262E3,7.207379E3,6.8797505E3,8.936725E3,4.339548E3,1.2294233E3,2.6541846E3,1.1224082E4,9.945031E3,9.059829E3,6.1897534E3,6.281038E3,3.739167E3],"tree_param":{"num_deleted":"0","num_feature":"8","num_nodes":"31","size_leaf_vector":"1"}},{"base_weights":[2.959684E-4,-9.133355E-1,9.1386324E-1,-5.021522E-1,-1.2749772E0,4.8761877E-1,1.2650559E0,-2.78624E-1,-6.923393E-1,-1.0926368E0,-1.4994922E0,2.8563917E-1,6.766371E-1,1.056351E0,1.4754714E0,-4.51341E-3,-1.2333132E-2,-2.7485956E-2,-1.734627E-2,-3.729474E-2,-2.7034514E-2,-4.844961E-2,-4.2446773E-2,5.5837473E-3,1.1983349E-2,2.601106E-2,1.5117332E-2,3.7640393E-2,2.7669236E-2,4.0562846E-2,4.767587E-2],"categories":[],"categories_nodes":[],"categories_segments":[],"categories_sizes":[],"default_left":[0,0,0,0,0,0,0,0,0,0,0,0,0,0,0,0,0,0,0,0,0,0,0,0,0,0,0,0,0,0,0],"id":6,"left_children":[1,3,5,7,9,11,13,15,17,19,21,23,25,27,29,-1,-1,-1,-1,-1,-1,-1,-1,-1,-1,-1,-1,-1,-1,-1,-1],"loss_changes":[8.37992E4,7.463793E3,7.5141875E3,9.9848193E2,1.0917031E3,8.6564404E2,1.2071094E3,1.8334668E2,3.2373096E2,4.2376758E2,1.14640625E2,1.2411157E2,3.848213E2,3.662744E2,1.9011328E2,0E0,0E0,0E0,0E0,0E0,0E0,0E0,0E0,0E0,0E0,0E0,0E0,0E0,0E0,0E0,0E0],"parents":[2147483647,0,0,1,1,2,2,3,3,4,4,5,5,6,6,7,7,8,8,9,9,10,10,11,11,12,12,13,13,14,14],"right_children":[2,4,6,8,10,12,14,16,18,20,22,24,26,28,30,-1,-1,-1,-1,-1,-1,-1,-1,-1,-1,-1,-1,-1,-1,-1,-1],"split_conditions":[0E0,6.663331E-4,6.2065484E-4,2.5641164E-4,1.6058483E-3,2.5641164E-4,1.3876997E-3,1.2362741E-4,2.5789996E-4,4.588897E-4,-2.7327552E-3,1.286461E-4,3.1035193E-4,3.4205898E-4,2.1748324E-3,-4.51341E-3,-1.2333132E-2,-2.7485956E-2,-1.734627E-2,-3.729474E-2,-2.7034514E-2,-4.844961E-2,-4.2446773E-2,5.5837473E-3,1.1983349E-2,2.601106E-2,1.5117332E-2,3.7640393E-2,2.7669236E-2,4.0562846E-2,4.767587E-2],"split_indices":[0,1,1,1,1,1,1,1,5,5,0,1,5,5,1,0,0,0,0,0,0,0,0,0,0,0,0,0,0,0,0],"split_type":[0,0,0,0,0,0,0,0,0,0,0,0,0,0,0,0,0,0,0,0,0,0,0,0,0,0,0,0,0,0,0],"sum_hessian":[1.0039675E5,5.019661E4,5.0200137E4,2.3490506E4,2.6706104E4,2.267805E4,2.7522086E4,1.0799842E4,1.2690664E4,1.4740468E4,1.1965636E4,1.096436E4,1.1713691E4,1.3820229E4,1.3701857E4,5.490158E3,5.309683E3,4.2829336E3,8.40773E3,8.249953E3,6.4905146E3,5.051408E3,6.9142275E3,5.8508706E3,5.11349E3,5.5698975E3,6.1437935E3,5.570222E3,8.250006E3,6.5782124E3,7.1236455E3],"tree_param":{"num_deleted":"0","num_feature":"8","num_nodes":"31","size_leaf_vector":"1"}},{"base_weights":[-6.5117155E-4,-8.8810813E-1,8.87159E-1,-4.2882782E-1,-1.1978482E0,5.5584466E-1,1.3193153E0,-5.3945508E-2,-3.6078617E-1,-1.5020461E0,-8.912772E-1,1.1483821E0,3.8997403E-1,1.528247E0,9.798109E-1,-3.5464915E-3,-1.4966654E-2,-4.9460176E-2,-4.0496826E-2,-2.1159135E-2,-3.468841E-2,5.3575076E-2,2.8596409E-2,7.019344E-3,1.9004717E-2,4.9188662E-2,4.0872302E-2,2.6263991E-2,3.87373E-2],"categories":[],"categories_nodes":[],"categories_segments":[],"categories_sizes":[],"default_left":[0,0,0,0,0,0,0,0,0,0,0,0,0,0,0,0,0,0,0,0,0,0,0,0,0,0,0,0,0],"id":7,"left_children":[1,3,5,7,9,11,13,-1,15,17,19,21,23,25,27,-1,-1,-1,-1,-1,-1,-1,-1,-1,-1,-1,-1,-1,-1],"loss_changes":[7.889991E4,7.1237617E3,7.1668633E3,1.8788823E3,2.7878984E3,2.7847305E3,1.5394062E3,0E0,6.4376E2,3.3266016E2,7.334424E2,7.693013E2,8.409597E2,2.4611523E2,2.6788916E2,0E0,0E0,0E0,0E0,0E0,0E0,0E0,0E0,0E0,0E0,0E0,0E0,0E0,0E0],"parents":[2147483647,0,0,1,1,2,2,3,3,4,4,5,5,6,6,8,8,9,9,10,10,11,11,12,12,13,13,14,14],"right_children":[2,4,6,8,10,12,14,-1,16,18,20,22,24,26,28,-1,-1,-1,-1,-1,-1,-1,-1,-1,-1,-1,-1,-1,-1],"split_conditions":[0E0,5.421357E-4,8.675454E-4,2E0,7E0,5E0,8E0,-5.3945508E-2,1.6612123E-4,4E0,1.3541173E-3,2E0,4.1807082E-4,5E0,2.1405737E-3,-3.5464915E-3,-1.4966654E-2,-4.9460176E-2,-4.0496826E-2,-2.1159135E-2,-3.468841E-2,5.3575076E-2,2.8596409E-2,7.019344E-3,1.9004717E-2,4.9188662E-2,4.0872302E-2,2.6263991E-2,3.87373E-2],"split_indices":[0,1,0,7,7,7,7,0,1,7,1,7,1,7,1,0,0,0,0,0,0,0,0,0,0,0,0,0,0],"split_type":[0,0,0,0,0,0,0,0,0,0,0,0,0,0,0,0,0,0,0,0,0,0,0,0,0,0,0,0,0],"sum_hessian":[1.00138336E5,5.007913E4,5.0059207E4,2.0171441E4,2.9907688E4,2.8336898E4,2.1722309E4,9.536456E2,1.9217795E4,1.5009988E4,1.4897699E4,6.196238E3,2.214066E4,1.3444833E4,8.277476E3,6.9726094E3,1.2245186E4,7.6387734E3,7.3712153E3,8.75636E3,6.1413384E3,1.4505009E3,4.745737E3,1.3496689E4,8.643971E3,8.037803E3,5.4070293E3,6.2029927E3,2.0744827E3],"tree_param":{"num_deleted":"0","num_feature":"8","num_nodes":"29","size_leaf_vector":"1"}},{"base_weights":[-8.510307E-4,-8.646424E-1,8.630743E-1,-5.060348E-1,-1.247813E0,5.080974E-1,1.2553608E0,-1.2016656E0,-3.7500876E-1,-1.4739071E0,-9.012637E-1,1.2083069E0,3.7841862E-1,1.4748236E0,9.167005E-1,-5.249591E-2,-2.8411131E-2,-6.475322E-3,-1.8227188E-2,-4.7928132E-2,-3.88523E-2,-2.2827962E-2,-3.4586333E-2,5.240735E-2,2.8662235E-2,5.631473E-3,1.7255632E-2,4.774582E-2,3.911058E-2,2.2967672E-2,3.443946E-2],"categories":[],"categories_nodes":[],"categories_segments":[],"categories_sizes":[],"default_left":[0,0,0,0,0,0,0,0,0,0,0,0,0,0,0,0,0,0,0,0,0,0,0,0,0,0,0,0,0,0,0],"id":8,"left_children":[1,3,5,7,9,11,13,15,17,19,21,23,25,27,29,-1,-1,-1,-1,-1,-1,-1,-1,-1,-1,-1,-1,-1,-1,-1,-1],"loss_changes":[7.438089E4,6.8478086E3,6.938668E3,2.3462783E3,1.8865234E3,2.3751094E3,1.7579961E3,5.679219E2,8.019138E2,3.2044336E2,3.3511328E2,5.551172E2,8.2825586E2,2.8476172E2,3.2452246E2,0E0,0E0,0E0,0E0,0E0,0E0,0E0,0E0,0E0,0E0,0E0,0E0,0E0,0E0,0E0,0E0],"parents":[2147483647,0,0,1,1,2,2,3,3,4,4,5,5,6,6,7,7,8,8,9,9,10,10,11,11,12,12,13,13,14,14],"right_children":[2,4,6,8,10,12,14,16,18,20,22,24,26,28,30,-1,-1,-1,-1,-1,-1,-1,-1,-1,-1,-1,-1,-1,-1,-1,-1],"split_conditions":[0E0,7.651044E-4,7.651044E-4,4E0,8E0,4E0,8E0,2E0,3.7706163E-4,5E0,1.7129414E-3,2E0,3.1057606E-4,5E0,1.5859426E-3,-5.249591E-2,-2.8411131E-2,-6.475322E-3,-1.8227188E-2,-4.7928132E-2,-3.88523E-2,-2.2827962E-2,-3.4586333E-2,5.240735E-2,2.8662235E-2,5.631473E-3,1.7255632E-2,4.774582E-2,3.911058E-2,2.2967672E-2,3.443946E-2],"split_indices":[0,1,1,7,7,7,7,7,1,7,1,7,0,7,1,0,0,0,0,0,0,0,0,0,0,0,0,0,0,0,0],"split_type":[0,0,0,0,0,0,0,0,0,0,0,0,0,0,0,0,0,0,0,0,0,0,0,0,0,0,0,0,0,0,0],"sum_hessian":[9.967071E4,4.9839223E4,4.9831492E4,2.5745988E4,2.4093232E4,2.6160953E4,2.367054E4,4.0794724E3,2.1666516E4,1.45786455E4,9.514587E3,4.0866245E3,2.2074328E4,1.4360879E4,9.30966E3,1.2920015E3,2.787471E3,1.2864265E4,8.802251E3,8.613049E3,5.9655967E3,6.110582E3,3.4040054E3,1.3038591E3,2.7827654E3,1.1210954E4,1.0863374E4,8.533398E3,5.827481E3,5.6333394E3,3.6763203E3],"tree_param":{"num_deleted":"0","num_feature":"8","num_nodes":"31","size_leaf_vector":"1"}},{"base_weights":[-5.562143E-4,-8.541111E-1,8.27604E-1,-1.2145672E0,-5.0282955E-1,3.8139102E-1,1.1412182E0,-1.4392911E0,-8.726264E-1,-1.1819699E0,-3.75632E-1,1.623849E0,3.2196173E-1,1.4378332E0,8.4606594E-1,-4.6866655E-2,-3.7842076E-2,-3.394342E-2,-2.2051094E-2,-5.132936E-2,-2.8143736E-2,-1.7634975E-2,-6.6934666E-3,-5.0397657E-2,5.144486E-2,1.7862557E-2,6.4766994E-3,4.7243755E-2,3.8864087E-2,1.9274505E-2,3.2280833E-2],"categories":[],"categories_nodes":[],"categories_segments":[],"categories_sizes":[],"default_left":[0,0,0,0,0,0,0,0,0,0,0,0,0,0,0,0,0,0,0,0,0,0,0,0,0,0,0,0,0,0,0],"id":9,"left_children":[1,3,5,7,9,11,13,15,17,19,21,23,25,27,29,-1,-1,-1,-1,-1,-1,-1,-1,-1,-1,-1,-1,-1,-1,-1,-1],"loss_changes":[7.02394E4,6.195289E3,7.057078E3,1.8544961E3,2.140462E3,1.5365999E3,2.5916094E3,3.1667188E2,3.4031738E2,5.0264502E2,6.75478E2,2.8843896E2,5.7617334E2,2.8594727E2,6.944033E2,0E0,0E0,0E0,0E0,0E0,0E0,0E0,0E0,0E0,0E0,0E0,0E0,0E0,0E0,0E0,0E0],"parents":[2147483647,0,0,1,1,2,2,3,3,4,4,5,5,6,6,7,7,8,8,9,9,10,10,11,11,12,12,13,13,14,14],"right_children":[2,4,6,8,10,12,14,16,18,20,22,24,26,28,30,-1,-1,-1,-1,-1,-1,-1,-1,-1,-1,-1,-1,-1,-1,-1,-1],"split_conditions":[-1.7135591E-5,-7.549001E-4,5.287613E-4,8E0,4E0,2E0,7E0,5E0,-1.7242554E-3,2E0,-3.7379563E-4,0E0,7E0,4E0,1.186914E-3,-4.6866655E-2,-3.7842076E-2,-3.394342E-2,-2.2051094E-2,-5.132936E-2,-2.8143736E-2,-1.7634975E-2,-6.6934666E-3,-5.0397657E-2,5.144486E-2,1.7862557E-2,6.4766994E-3,4.7243755E-2,3.8864087E-2,1.9274505E-2,3.2280833E-2],"split_indices":[0,0,0,7,7,7,7,7,0,7,0,0,7,7,0,0,0,0,0,0,0,0,0,0,0,0,0,0,0,0,0],"split_type":[0,0,0,0,0,0,0,0,0,0,0,0,0,0,0,0,0,0,0,0,0,0,0,0,0,0,0,0,0,0,0],"sum_hessian":[9.936334E4,4.893144E4,5.0431902E4,2.4149137E4,2.4782307E4,2.0816383E4,2.9615521E4,1.4570301E4,9.578835E3,3.9080325E3,2.0874275E4,9.490365E2,1.9867346E4,1.4769225E4,1.4846297E4,8.611502E3,5.9587993E3,3.3222031E3,6.256632E3,1.2311359E3,2.6768967E3,8.727958E3,1.2146316E4,2.4966198E1,9.2407025E2,5.551294E3,1.4316052E4,7.522373E3,7.2468516E3,7.876829E3,6.9694673E3],"tree_param":{"num_deleted":"0","num_feature":"8","num_nodes":"31","size_leaf_vector":"1"}},{"base_weights":[1.8962226E-3,-8.288759E-1,8.0897576E-1,-5.400136E-1,-1.252775E0,3.7397224E-1,1.1162262E0,-1.101027E0,-3.7874E-1,-1.4484416E0,-9.275689E-1,1.5897174E0,3.160993E-1,1.405921E0,8.289486E-1,-5.0172597E-2,-2.7846538E-2,-5.8128233E-3,-1.712838E-2,-4.6568315E-2,-3.88528E-2,-3.2160982E-2,-2.2110557E-2,-4.9325243E-2,5.0358675E-2,3.1935761E-3,1.3902032E-2,4.623328E-2,3.79491E-2,2.061583E-2,3.44044E-2],"categories":[],"categories_nodes":[],"categories_segments":[],"categories_sizes":[],"default_left":[0,0,0,0,0,0,0,0,0,0,0,0,0,0,0,0,0,0,0,0,0,0,0,0,0,0,0,0,0,0,0],"id":10,"left_children":[1,3,5,7,9,11,13,15,17,19,21,23,25,27,29,-1,-1,-1,-1,-1,-1,-1,-1,-1,-1,-1,-1,-1,-1,-1,-1],"loss_changes":[6.6372375E4,5.972211E3,6.710504E3,2.6244795E3,1.2565273E3,1.4619646E3,2.4477383E3,6.3802783E2,8.0112134E2,1.9448633E2,2.0370264E2,2.7424292E2,6.1271643E2,2.7720117E2,6.650459E2,0E0,0E0,0E0,0E0,0E0,0E0,0E0,0E0,0E0,0E0,0E0,0E0,0E0,0E0,0E0,0E0],"parents":[2147483647,0,0,1,1,2,2,3,3,4,4,5,5,6,6,7,7,8,8,9,9,10,10,11,11,12,12,13,13,14,14],"right_children":[2,4,6,8,10,12,14,16,18,20,22,24,26,28,30,-1,-1,-1,-1,-1,-1,-1,-1,-1,-1,-1,-1,-1,-1,-1,-1],"split_conditions":[-1.7135591E-5,9.7178516E-4,5.287176E-4,5E0,8E0,2E0,7E0,2E0,3.7706163E-4,5E0,1.1E1,0E0,1.7632698E-4,4E0,1.5859426E-3,-5.0172597E-2,-2.7846538E-2,-5.8128233E-3,-1.712838E-2,-4.6568315E-2,-3.88528E-2,-3.2160982E-2,-2.2110557E-2,-4.9325243E-2,5.0358675E-2,3.1935761E-3,1.3902032E-2,4.623328E-2,3.79491E-2,2.061583E-2,3.44044E-2],"split_indices":[0,1,1,7,7,7,7,7,1,7,7,0,1,7,1,0,0,0,0,0,0,0,0,0,0,0,0,0,0,0,0],"split_type":[0,0,0,0,0,0,0,0,0,0,0,0,0,0,0,0,0,0,0,0,0,0,0,0,0,0,0,0,0,0,0],"sum_hessian":[9.898751E4,4.877778E4,5.0209727E4,2.901086E4,1.9766922E4,2.0784855E4,2.9424871E4,6.4762993E3,2.253456E4,1.2339289E4,7.4276323E3,9.432568E2,1.9841598E4,1.4648858E4,1.4776013E4,1.5018284E3,4.974471E3,1.1484183E4,1.1050378E4,7.351975E3,4.987314E3,4.222078E3,3.2055542E3,2.476985E1,9.1848694E2,8.1887344E3,1.1652864E4,7.4722065E3,7.176652E3,1.0221028E4,4.5549844E3],"tree_param":{"num_deleted":"0","num_feature":"8","num_nodes":"31","size_leaf_vector":"1"}},{"base_weights":[6.0152024E-4,-7.98393E-1,7.9766315E-1,-1.0780602E0,-3.6058873E-1,4.9479952E-1,1.2139846E0,-1.3755492E0,-7.8821313E-1,-4.9460128E-2,-2.986956E-1,1.0411252E0,3.4261563E-1,1.4101099E0,8.96246E-1,-4.5533173E-2,-3.690167E-2,-1.8530395E-2,-3.151658E-2,-3.1505313E-3,-1.2996795E-2,4.920137E-2,2.5864381E-2,5.9282472E-3,1.689418E-2,4.5466613E-2,3.7624806E-2,2.3956232E-2,3.58199E-2],"categories":[],"categories_nodes":[],"categories_segments":[],"categories_sizes":[],"default_left":[0,0,0,0,0,0,0,0,0,0,0,0,0,0,0,0,0,0,0,0,0,0,0,0,0,0,0,0,0],"id":11,"left_children":[1,3,5,7,9,11,13,15,17,-1,19,21,23,25,27,-1,-1,-1,-1,-1,-1,-1,-1,-1,-1,-1,-1,-1,-1],"loss_changes":[6.2773543E4,6.0266797E3,6.2211465E3,2.588875E3,1.529332E3,2.3746821E3,1.293627E3,3.0482812E2,6.8008496E2,0E0,4.7704895E2,6.656753E2,7.143921E2,2.0934766E2,2.2984521E2,0E0,0E0,0E0,0E0,0E0,0E0,0E0,0E0,0E0,0E0,0E0,0E0,0E0,0E0],"parents":[2147483647,0,0,1,1,2,2,3,3,4,4,5,5,6,6,7,7,8,8,10,10,11,11,12,12,13,13,14,14],"right_children":[2,4,6,8,10,12,14,16,18,-1,20,22,24,26,28,-1,-1,-1,-1,-1,-1,-1,-1,-1,-1,-1,-1,-1,-1],"split_conditions":[0E0,-5.119004E-4,8.876393E-4,7E0,2E0,5E0,8E0,4E0,1.3541173E-3,-4.9460128E-2,1.806877E-4,2E0,4.1807082E-4,5E0,2.1748324E-3,-4.5533173E-2,-3.690167E-2,-1.8530395E-2,-3.151658E-2,-3.1505313E-3,-1.2996795E-2,4.920137E-2,2.5864381E-2,5.9282472E-3,1.689418E-2,4.5466613E-2,3.7624806E-2,2.3956232E-2,3.58199E-2],"split_indices":[0,0,0,7,7,7,7,7,1,0,1,7,1,7,1,0,0,0,0,0,0,0,0,0,0,0,0,0,0],"split_type":[0,0,0,0,0,0,0,0,0,0,0,0,0,0,0,0,0,0,0,0,0,0,0,0,0,0,0,0,0],"sum_hessian":[9.856714E4,4.9223883E4,4.9343254E4,3.0035742E4,1.918814E4,2.8565064E4,2.077819E4,1.4820618E4,1.5215124E4,8.785548E2,1.8309586E4,6.222182E3,2.2342883E4,1.2845701E4,7.932488E3,7.489767E3,7.3308516E3,9.223053E3,5.9920713E3,7.505724E3,1.0803862E4,1.4297213E3,4.792461E3,1.3480533E4,8.86235E3,7.6586523E3,5.1870493E3,5.975386E3,1.9571013E3],"tree_param":{"num_deleted":"0","num_feature":"8","num_nodes":"29","size_leaf_vector":"1"}},{"base_weights":[-4.769949E-4,-7.723041E-1,7.829929E-1,-1.0531855E0,-3.4428805E-1,4.9000627E-1,1.183331E0,-1.3455137E0,-7.696414E-1,-1.5790648E0,-2.8636762E-1,1.1403029E0,3.670569E-1,1.3799337E0,8.6755055E-1,-4.4684853E-2,-3.595385E-2,-1.8830223E-2,-3.224489E-2,-4.8517656E-2,3.174256E-2,-2.6203904E-3,-1.2430464E-2,4.8370115E-2,2.7674478E-2,5.845552E-3,1.6845558E-2,4.456461E-2,3.6736887E-2,2.31031E-2,3.465275E-2],"categories":[],"categories_nodes":[],"categories_segments":[],"categories_sizes":[],"default_left":[0,0,0,0,0,0,0,0,0,0,0,0,0,0,0,0,0,0,0,0,0,0,0,0,0,0,0,0,0,0,0],"id":12,"left_children":[1,3,5,7,9,11,13,15,17,19,21,23,25,27,29,-1,-1,-1,-1,-1,-1,-1,-1,-1,-1,-1,-1,-1,-1,-1,-1],"loss_changes":[5.936253E4,5.9447734E3,5.7135684E3,2.4737656E3,1.400979E3,2.2487979E3,1.2768496E3,3.0944336E2,6.560996E2,9.011401E1,4.767428E2,4.583745E2,7.9219946E2,2.062207E2,2.2051465E2,0E0,0E0,0E0,0E0,0E0,0E0,0E0,0E0,0E0,0E0,0E0,0E0,0E0,0E0,0E0,0E0],"parents":[2147483647,0,0,1,1,2,2,3,3,4,4,5,5,6,6,7,7,8,8,9,9,10,10,11,11,12,12,13,13,14,14],"right_children":[2,4,6,8,10,12,14,16,18,20,22,24,26,28,30,-1,-1,-1,-1,-1,-1,-1,-1,-1,-1,-1,-1,-1,-1,-1,-1],"split_conditions":[6.3409307E-6,-5.119004E-4,8.876393E-4,7E0,2E0,4E0,8E0,4E0,1.5659E-3,0E0,1.6612123E-4,2E0,3.6615191E-4,5E0,2.1405737E-3,-4.4684853E-2,-3.595385E-2,-1.8830223E-2,-3.224489E-2,-4.8517656E-2,3.174256E-2,-2.6203904E-3,-1.2430464E-2,4.8370115E-2,2.7674478E-2,5.845552E-3,1.6845558E-2,4.456461E-2,3.6736887E-2,2.31031E-2,3.465275E-2],"split_indices":[0,0,0,7,7,7,7,7,1,0,1,7,0,7,1,0,0,0,0,0,0,0,0,0,0,0,0,0,0,0,0],"split_type":[0,0,0,0,0,0,0,0,0,0,0,0,0,0,0,0,0,0,0,0,0,0,0,0,0,0,0,0,0,0,0],"sum_hessian":[9.816603E4,4.9450453E4,4.871558E4,2.9856168E4,1.9594285E4,2.813053E4,2.0585049E4,1.4698534E4,1.5157635E4,8.7676245E2,1.8717523E4,4.4715557E3,2.3658975E4,1.2684436E4,7.900614E3,7.422197E3,7.276338E3,1.0347327E4,4.810307E3,8.6462787E2,1.2134536E1,7.3262627E3,1.1391261E4,1.4098644E3,3.0616914E3,1.2548592E4,1.1110382E4,7.5480264E3,5.136409E3,5.903579E3,1.9970345E3],"tree_param":{"num_deleted":"0","num_feature":"8","num_nodes":"31","size_leaf_vector":"1"}},{"base_weights":[1.7063033E-4,-7.7177083E-1,7.477137E-1,-4.9935144E-1,-1.178519E0,4.4826543E-1,1.1458964E0,-1.0299689E0,-3.484867E-1,-1.3718705E0,-8.604439E-1,9.5080864E-1,3.1249967E-1,1.3461643E0,8.32023E-1,-4.7448203E-2,-2.599571E-2,-5.361745E-3,-1.5785184E-2,-4.4225253E-2,-3.6697168E-2,-3.0112073E-2,-2.0179639E-2,4.5610197E-2,2.3564981E-2,4.436764E-3,1.4457041E-2,4.3681845E-2,3.5586365E-2,2.170704E-2,3.2954074E-2],"categories":[],"categories_nodes":[],"categories_segments":[],"categories_sizes":[],"default_left":[0,0,0,0,0,0,0,0,0,0,0,0,0,0,0,0,0,0,0,0,0,0,0,0,0,0,0,0,0,0,0],"id":13,"left_children":[1,3,5,7,9,11,13,15,17,19,21,23,25,27,29,-1,-1,-1,-1,-1,-1,-1,-1,-1,-1,-1,-1,-1,-1,-1,-1],"loss_changes":[5.6343125E4,5.3220117E3,5.91391E3,2.3026958E3,1.1837207E3,1.9314668E3,1.3371914E3,5.728247E2,6.7565454E2,1.80375E2,1.9539941E2,5.6573486E2,6.215547E2,2.267207E2,2.3893164E2,0E0,0E0,0E0,0E0,0E0,0E0,0E0,0E0,0E0,0E0,0E0,0E0,0E0,0E0,0E0,0E0],"parents":[2147483647,0,0,1,1,2,2,3,3,4,4,5,5,6,6,7,7,8,8,9,9,10,10,11,11,12,12,13,13,14,14],"right_children":[2,4,6,8,10,12,14,16,18,20,22,24,26,28,30,-1,-1,-1,-1,-1,-1,-1,-1,-1,-1,-1,-1,-1,-1,-1,-1],"split_conditions":[-1.7135591E-5,9.7178516E-4,8.407106E-4,5E0,8E0,5E0,8E0,2E0,3.7706163E-4,5E0,1.1E1,2E0,3.1494914E-4,5E0,1.960058E-3,-4.7448203E-2,-2.599571E-2,-5.361745E-3,-1.5785184E-2,-4.4225253E-2,-3.6697168E-2,-3.0112073E-2,-2.0179639E-2,4.5610197E-2,2.3564981E-2,4.436764E-3,1.4457041E-2,4.3681845E-2,3.5586365E-2,2.170704E-2,3.2954074E-2],"split_indices":[0,1,1,7,7,7,7,7,1,7,7,7,1,7,1,0,0,0,0,0,0,0,0,0,0,0,0,0,0,0,0],"split_type":[0,0,0,0,0,0,0,0,0,0,0,0,0,0,0,0,0,0,0,0,0,0,0,0,0,0,0,0,0,0,0],"sum_hessian":[9.763633E4,4.8034273E4,4.9602055E4,2.8768688E4,1.9265588E4,2.8312285E4,2.1289771E4,6.3674473E3,2.240124E4,1.197992E4,7.285668E3,6.0206323E3,2.2291652E4,1.2994985E4,8.294786E3,1.4534114E3,4.914036E3,1.1457099E4,1.0944141E4,7.0905234E3,4.8893965E3,4.1299673E3,3.1557007E3,1.3525535E3,4.668079E3,1.1306758E4,1.09848955E4,7.6979297E3,5.2970557E3,5.8978306E3,2.3969556E3],"tree_param":{"num_deleted":"0","num_feature":"8","num_nodes":"31","size_leaf_vector":"1"}},{"base_weights":[3.3203032E-4,-7.328462E-1,7.4517065E-1,-4.142306E-1,-1.0906478E0,4.7192165E-1,1.1488929E0,-1.0309415E0,-3.0199912E-1,-1.2739998E0,-7.0918393E-1,9.953639E-1,3.2622606E-1,1.3075486E0,7.876602E-1,-4.5937497E-2,-2.4278287E-2,-1.3731228E-2,-3.637376E-3,-4.2767577E-2,-3.3294052E-2,-1.792535E-2,-2.8120082E-2,4.6714477E-2,2.4889698E-2,5.5982773E-3,1.5680512E-2,4.3142326E-2,3.4835227E-2,2.064137E-2,3.0497696E-2],"categories":[],"categories_nodes":[],"categories_segments":[],"categories_sizes":[],"default_left":[0,0,0,0,0,0,0,0,0,0,0,0,0,0,0,0,0,0,0,0,0,0,0,0,0,0,0,0,0,0,0],"id":14,"left_children":[1,3,5,7,9,11,13,15,17,19,21,23,25,27,29,-1,-1,-1,-1,-1,-1,-1,-1,-1,-1,-1,-1,-1,-1,-1,-1],"loss_changes":[5.30384E4,5.579246E3,5.314297E3,1.7917485E3,1.6115293E3,2.190976E3,1.1134277E3,4.4080713E2,6.164984E2,3.8592773E2,1.9017114E2,5.810742E2,6.164629E2,2.5645117E2,1.3468726E2,0E0,0E0,0E0,0E0,0E0,0E0,0E0,0E0,0E0,0E0,0E0,0E0,0E0,0E0,0E0,0E0],"parents":[2147483647,0,0,1,1,2,2,3,3,4,4,5,5,6,6,7,7,8,8,9,9,10,10,11,11,12,12,13,13,14,14],"right_children":[2,4,6,8,10,12,14,16,18,20,22,24,26,28,30,-1,-1,-1,-1,-1,-1,-1,-1,-1,-1,-1,-1,-1,-1,-1,-1],"split_conditions":[6.3409307E-6,7.651044E-4,9.297665E-4,4E0,9E0,5E0,9E0,2E0,-2.7307583E-4,5E0,1.7129414E-3,2E0,4.1807082E-4,5E0,1.960058E-3,-4.5937497E-2,-2.4278287E-2,-1.3731228E-2,-3.637376E-3,-4.2767577E-2,-3.3294052E-2,-1.792535E-2,-2.8120082E-2,4.6714477E-2,2.4889698E-2,5.5982773E-3,1.5680512E-2,4.3142326E-2,3.4835227E-2,2.064137E-2,3.0497696E-2],"split_indices":[0,1,1,7,7,7,7,7,0,7,1,7,1,7,1,0,0,0,0,0,0,0,0,0,0,0,0,0,0,0,0],"split_type":[0,0,0,0,0,0,0,0,0,0,0,0,0,0,0,0,0,0,0,0,0,0,0,0,0,0,0,0,0,0,0],"sum_hessian":[9.712023E4,4.8943223E4,4.8177004E4,2.5890436E4,2.3052787E4,2.8732393E4,1.9444611E4,3.984957E3,2.1905479E4,1.5567751E4,7.485035E3,6.2548154E3,2.2477578E4,1.3508829E4,5.9357827E3,1.2216749E3,2.7632822E3,1.176719E4,1.0138288E4,8.0907563E3,7.4769946E3,5.027751E3,2.457284E3,1.4228004E3,4.832015E3,1.3140766E4,9.336812E3,7.136259E3,6.37257E3,4.1388467E3,1.7969362E3],"tree_param":{"num_deleted":"0","num_feature":"8","num_nodes":"31","size_leaf_vector":"1"}},{"base_weights":[-7.3389834E-5,-7.1615386E-1,7.272304E-1,-4.5136717E-1,-1.132046E0,4.620533E-1,1.1331905E0,-1.0606596E0,-3.359212E-1,-1.3224953E0,-8.2305855E-1,9.693646E-1,3.2027495E-1,1.3171765E0,8.337048E-1,-4.5286912E-2,-2.5906717E-2,-4.9475734E-3,-1.578699E-2,-4.2682983E-2,-3.5318438E-2,-2.9074969E-2,-1.9002566E-2,4.5949858E-2,2.4194349E-2,5.630425E-3,1.5847886E-2,4.2535298E-2,3.511793E-2,2.2182714E-2,3.2618493E-2],"categories":[],"categories_nodes":[],"categories_segments":[],"categories_sizes":[],"default_left":[0,0,0,0,0,0,0,0,0,0,0,0,0,0,0,0,0,0,0,0,0,0,0,0,0,0,0,0,0,0,0],"id":15,"left_children":[1,3,5,7,9,11,13,15,17,19,21,23,25,27,29,-1,-1,-1,-1,-1,-1,-1,-1,-1,-1,-1,-1,-1,-1,-1,-1],"loss_changes":[5.0367094E4,5.3658516E3,5.164457E3,2.0940957E3,1.1143906E3,2.0872104E3,1.0434238E3,4.1832568E2,8.146228E2,1.6906055E2,1.9974121E2,5.793535E2,6.255156E2,1.7158398E2,1.7172852E2,0E0,0E0,0E0,0E0,0E0,0E0,0E0,0E0,0E0,0E0,0E0,0E0,0E0,0E0,0E0,0E0],"parents":[2147483647,0,0,1,1,2,2,3,3,4,4,5,5,6,6,7,7,8,8,9,9,10,10,11,11,12,12,13,13,14,14],"right_children":[2,4,6,8,10,12,14,16,18,20,22,24,26,28,30,-1,-1,-1,-1,-1,-1,-1,-1,-1,-1,-1,-1,-1,-1,-1,-1],"split_conditions":[6.3409307E-6,9.7178516E-4,9.4997784E-4,4E0,8E0,5E0,8E0,2E0,3.7706163E-4,5E0,1.1E1,2E0,4.5019167E-4,5E0,2.1405737E-3,-4.5286912E-2,-2.5906717E-2,-4.9475734E-3,-1.578699E-2,-4.2682983E-2,-3.5318438E-2,-2.9074969E-2,-1.9002566E-2,4.5949858E-2,2.4194349E-2,5.630425E-3,1.5847886E-2,4.2535298E-2,3.511793E-2,2.2182714E-2,3.2618493E-2],"split_indices":[0,1,0,7,7,7,7,7,1,7,7,7,1,7,1,0,0,0,0,0,0,0,0,0,0,0,0,0,0,0,0],"split_type":[0,0,0,0,0,0,0,0,0,0,0,0,0,0,0,0,0,0,0,0,0,0,0,0,0,0,0,0,0,0,0],"sum_hessian":[9.6707516E4,4.872975E4,4.797776E4,2.977496E4,1.895479E4,2.9022266E4,1.8955496E4,4.7416475E3,2.5033314E4,1.1724762E4,7.230027E3,6.337955E3,2.268431E4,1.1739845E4,7.215652E3,1.4446873E3,3.2969604E3,1.3186569E4,1.1846744E4,6.9304575E3,4.794304E3,4.0814111E3,3.148616E3,1.4217051E3,4.91625E3,1.3854102E4,8.830209E3,6.954787E3,4.7850576E3,5.2628345E3,1.9528174E3],"tree_param":{"num_deleted":"0","num_feature":"8","num_nodes":"31","size_leaf_vector":"1"}},{"base_weights":[1.8149453E-4,-7.402726E-1,6.6979957E-1,-4.8166436E-1,-1.1114956E0,2.9955742E-1,9.853632E-1,-6.7642313E-1,-3.126895E-1,-1.2696372E0,-9.6954334E-1,1.1796106E-1,4.6639702E-1,7.953217E-1,1.197935E0,-2.7845489E-2,-1.613834E-2,-1.3681837E-2,-6.3095456E-3,-4.049607E-2,-3.5503283E-2,-3.2018844E-2,-1.848463E-2,1.128827E-3,6.7827473E-3,2.2381632E-2,1.1136931E-2,2.932646E-2,1.9713132E-2,3.2443464E-2,3.951818E-2],"categories":[],"categories_nodes":[],"categories_segments":[],"categories_sizes":[],"default_left":[0,0,0,0,0,0,0,0,0,0,0,0,0,0,0,0,0,0,0,0,0,0,0,0,0,0,0,0,0,0,0],"id":16,"left_children":[1,3,5,7,9,11,13,15,17,19,21,23,25,27,29,-1,-1,-1,-1,-1,-1,-1,-1,-1,-1,-1,-1,-1,-1,-1,-1],"loss_changes":[4.763469E4,4.379334E3,5.8939414E3,8.847866E2,4.1927344E2,7.032986E2,1.0992871E3,4.350122E2,2.112699E2,5.965625E1,3.4048633E2,9.656117E1,3.217168E2,3.6161328E2,1.7725586E2,0E0,0E0,0E0,0E0,0E0,0E0,0E0,0E0,0E0,0E0,0E0,0E0,0E0,0E0,0E0,0E0],"parents":[2147483647,0,0,1,1,2,2,3,3,4,4,5,5,6,6,7,7,8,8,9,9,10,10,11,11,12,12,13,13,14,14],"right_children":[2,4,6,8,10,12,14,16,18,20,22,24,26,28,30,-1,-1,-1,-1,-1,-1,-1,-1,-1,-1,-1,-1,-1,-1,-1,-1],"split_conditions":[-5.225848E-5,9.7178516E-4,5.627887E-4,-4.3387932E-4,-1.8657213E-3,2.0029115E-4,1.3604653E-3,2.9686876E-4,2.5789996E-4,-2.7327552E-3,7.0439227E-4,8.7967215E-5,2.0610658E-4,3.5372336E-4,2.2012417E-3,-2.7845489E-2,-1.613834E-2,-1.3681837E-2,-6.3095456E-3,-4.049607E-2,-3.5503283E-2,-3.2018844E-2,-1.848463E-2,1.128827E-3,6.7827473E-3,2.2381632E-2,1.1136931E-2,2.932646E-2,1.9713132E-2,3.2443464E-2,3.951818E-2],"split_indices":[0,1,1,0,0,1,0,5,5,0,5,1,5,5,0,0,0,0,0,0,0,0,0,0,0,0,0,0,0,0,0],"split_type":[0,0,0,0,0,0,0,0,0,0,0,0,0,0,0,0,0,0,0,0,0,0,0,0,0,0,0,0,0,0,0],"sum_hessian":[9.6070266E4,4.5622004E4,5.0448266E4,2.6891002E4,1.8731002E4,2.3213938E4,2.7234328E4,1.2490997E4,1.4400005E4,8.856499E3,9.874504E3,1.1116213E4,1.2097724E4,1.4381688E4,1.2852639E4,4.4304844E3,8.060513E3,5.997296E3,8.402708E3,4.579312E3,4.2771875E3,7.7333486E3,2.1411545E3,6.378659E3,4.737554E3,3.0698206E3,9.027903E3,6.2006367E3,8.181052E3,6.5091177E3,6.343521E3],"tree_param":{"num_deleted":"0","num_feature":"8","num_nodes":"31","size_leaf_vector":"1"}},{"base_weights":[-1.0074779E-3,-7.215233E-1,6.510823E-1,-1.0768011E0,-4.5749182E-1,2.7319178E-1,9.5140195E-1,-6.204238E-1,-1.2215494E0,-2.784931E-1,-8.2013696E-1,9.3059546E-1,2.0892967E-1,1.2352234E0,6.7932725E-1,-4.5162044E-2,-1.4444467E-2,-4.1112136E-2,-3.2197796E-2,-1.3733464E-2,-5.4309033E-3,-2.841888E-2,-1.780964E-2,-2.1388909E-2,3.309408E-2,1.9892312E-3,1.0629377E-2,4.1182294E-2,3.2860756E-2,1.489471E-2,2.6761103E-2],"categories":[],"categories_nodes":[],"categories_segments":[],"categories_sizes":[],"default_left":[0,0,0,0,0,0,0,0,0,0,0,0,0,0,0,0,0,0,0,0,0,0,0,0,0,0,0,0,0,0,0],"id":17,"left_children":[1,3,5,7,9,11,13,15,17,19,21,23,25,27,29,-1,-1,-1,-1,-1,-1,-1,-1,-1,-1,-1,-1,-1,-1,-1,-1],"loss_changes":[4.490369E4,4.2585957E3,5.6932324E3,1.2779219E3,1.6906558E3,9.383672E2,2.1576895E3,5.7263367E2,3.2288867E2,3.0469348E2,2.4733643E2,5.6171484E2,4.1963824E2,2.6161523E2,5.54687E2,0E0,0E0,0E0,0E0,0E0,0E0,0E0,0E0,0E0,0E0,0E0,0E0,0E0,0E0,0E0,0E0],"parents":[2147483647,0,0,1,1,2,2,3,3,4,4,5,5,6,6,7,7,8,8,9,9,10,10,11,11,12,12,13,13,14,14],"right_children":[2,4,6,8,10,12,14,16,18,20,22,24,26,28,30,-1,-1,-1,-1,-1,-1,-1,-1,-1,-1,-1,-1,-1,-1,-1,-1],"split_conditions":[-5.225848E-5,7E0,5.287176E-4,4.438382E-4,9.7178516E-4,3E0,7E0,2E0,4E0,-5.119004E-4,1.1E1,0E0,2.0029115E-4,4E0,1.186914E-3,-4.5162044E-2,-1.4444467E-2,-4.1112136E-2,-3.2197796E-2,-1.3733464E-2,-5.4309033E-3,-2.841888E-2,-1.780964E-2,-2.1388909E-2,3.309408E-2,1.9892312E-3,1.0629377E-2,4.1182294E-2,3.2860756E-2,1.489471E-2,2.6761103E-2],"split_indices":[0,7,1,1,1,7,7,7,7,0,7,0,1,7,0,0,0,0,0,0,0,0,0,0,0,0,0,0,0,0,0],"split_type":[0,0,0,0,0,0,0,0,0,0,0,0,0,0,0,0,0,0,0,0,0,0,0,0,0,0,0,0,0,0,0],"sum_hessian":[9.55701E4,4.540286E4,5.0167246E4,1.9355389E4,2.6047469E4,2.2215506E4,2.7951738E4,4.6619624E3,1.4693427E4,1.7440666E4,8.606803E3,1.9770215E3,2.0238484E4,1.3678806E4,1.4272933E4,6.3127405E2,4.0306885E3,7.3286123E3,7.3648145E3,6.1407285E3,1.12999375E4,5.5100103E3,3.0967922E3,1.8753151E2,1.78949E3,1.0216985E4,1.0021499E4,6.8927847E3,6.7860215E3,7.677221E3,6.595711E3],"tree_param":{"num_deleted":"0","num_feature":"8","num_nodes":"31","size_leaf_vector":"1"}},{"base_weights":[3.1662465E-4,-7.043975E-1,6.3673633E-1,-4.5598456E-1,-1.0664409E0,3.4553498E-1,1.0105714E0,-6.3898516E-1,-2.980949E-1,-1.2278538E0,-9.2268E-1,1.36398E-1,5.21963E-1,8.4875935E-1,1.2002337E0,-2.5063172E-2,-1.4093461E-2,-1.3166525E-2,-5.937616E-3,-4.029508E-2,-3.490559E-2,-3.051791E-2,-1.7492665E-2,1.0059758E-3,7.121502E-3,2.0824159E-2,1.0702418E-2,2.8261185E-2,1.5659941E-2,3.3333324E-2,3.962545E-2],"categories":[],"categories_nodes":[],"categories_segments":[],"categories_sizes":[],"default_left":[0,0,0,0,0,0,0,0,0,0,0,0,0,0,0,0,0,0,0,0,0,0,0,0,0,0,0,0,0,0,0],"id":18,"left_children":[1,3,5,7,9,11,13,15,17,19,21,23,25,27,29,-1,-1,-1,-1,-1,-1,-1,-1,-1,-1,-1,-1,-1,-1,-1,-1],"loss_changes":[4.263242E4,4.056371E3,5.437129E3,7.728384E2,4.2479492E2,1.0359785E3,6.701875E2,4.114839E2,2.0249963E2,6.2561523E1,3.113672E2,1.3347516E2,4.3299268E2,3.5933594E2,1.0674121E2,0E0,0E0,0E0,0E0,0E0,0E0,0E0,0E0,0E0,0E0,0E0,0E0,0E0,0E0,0E0,0E0],"parents":[2147483647,0,0,1,1,2,2,3,3,4,4,5,5,6,6,7,7,8,8,9,9,10,10,11,11,12,12,13,13,14,14],"right_children":[2,4,6,8,10,12,14,16,18,20,22,24,26,28,30,-1,-1,-1,-1,-1,-1,-1,-1,-1,-1,-1,-1,-1,-1,-1,-1],"split_conditions":[-5.225848E-5,9.7178516E-4,7.651044E-4,-4.3387932E-4,-1.8657213E-3,2.458579E-4,1.6126906E-3,3.4921142E-4,2.5789996E-4,-3.274088E-3,7.0439227E-4,8.7967215E-5,3.2601826E-4,6.384373E-4,2.680166E-3,-2.5063172E-2,-1.4093461E-2,-1.3166525E-2,-5.937616E-3,-4.029508E-2,-3.490559E-2,-3.051791E-2,-1.7492665E-2,1.0059758E-3,7.121502E-3,2.0824159E-2,1.0702418E-2,2.8261185E-2,1.5659941E-2,3.3333324E-2,3.962545E-2],"split_indices":[0,1,1,0,0,1,0,5,5,0,5,1,5,5,1,0,0,0,0,0,0,0,0,0,0,0,0,0,0,0,0],"split_type":[0,0,0,0,0,0,0,0,0,0,0,0,0,0,0,0,0,0,0,0,0,0,0,0,0,0,0,0,0,0,0],"sum_hessian":[9.505484E4,4.5107137E4,4.9947707E4,2.6753035E4,1.8354102E4,2.8078049E4,2.186966E4,1.2389754E4,1.436328E4,8.642676E3,9.711427E3,1.2848851E4,1.5229198E4,1.1804244E4,1.0065415E4,5.7313784E3,6.658376E3,5.969753E3,8.393527E3,3.0879E3,5.554776E3,7.594262E3,2.1171646E3,6.365834E3,6.4830166E3,7.455952E3,7.773246E3,9.181368E3,2.6228762E3,5.794231E3,4.2711846E3],"tree_param":{"num_deleted":"0","num_feature":"8","num_nodes":"31","size_leaf_vector":"1"}},{"base_weights":[-1.5534605E-3,-6.93672E-1,6.138834E-1,-1.0424793E0,-4.3663135E-1,3.1148112E-1,9.7085166E-1,-1.1773759E0,-6.019942E-1,-7.788395E-1,-2.66784E-1,7.3183453E-1,2.0589922E-1,1.2790482E0,7.41599E-1,-4.1928142E-2,-3.2055583E-2,-4.4353053E-2,-1.393476E-2,-2.7232084E-2,-1.6463993E-2,-1.2815487E-2,-5.337291E-3,5.019792E-3,2.8259857E-2,2.852072E-3,1.0987512E-2,4.213073E-2,3.580528E-2,1.7674029E-2,2.9297363E-2],"categories":[],"categories_nodes":[],"categories_segments":[],"categories_sizes":[],"default_left":[0,0,0,0,0,0,0,0,0,0,0,0,0,0,0,0,0,0,0,0,0,0,0,0,0,0,0,0,0,0,0],"id":19,"left_children":[1,3,5,7,9,11,13,15,17,19,21,23,25,27,29,-1,-1,-1,-1,-1,-1,-1,-1,-1,-1,-1,-1,-1,-1,-1,-1],"loss_changes":[4.027649E4,3.9897793E3,5.402543E3,1.1212188E3,1.4891919E3,1.202489E3,1.6208496E3,3.450078E2,5.330298E2,2.5151367E2,2.4407117E2,6.4516895E2,3.848863E2,1.03256836E2,4.710786E2,0E0,0E0,0E0,0E0,0E0,0E0,0E0,0E0,0E0,0E0,0E0,0E0,0E0,0E0,0E0,0E0],"parents":[2147483647,0,0,1,1,2,2,3,3,4,4,5,5,6,6,7,7,8,8,9,9,10,10,11,11,12,12,13,13,14,14],"right_children":[2,4,6,8,10,12,14,16,18,20,22,24,26,28,30,-1,-1,-1,-1,-1,-1,-1,-1,-1,-1,-1,-1,-1,-1,-1,-1],"split_conditions":[-6.0581588E-5,7E0,7.054496E-4,-4.3387932E-4,-9.7198196E-4,5E0,6E0,3E0,2E0,1.1E1,-5.119004E-4,1.3048225E-4,3.1057606E-4,3E0,1.573599E-3,-4.1928142E-2,-3.2055583E-2,-4.4353053E-2,-1.393476E-2,-2.7232084E-2,-1.6463993E-2,-1.2815487E-2,-5.337291E-3,5.019792E-3,2.8259857E-2,2.852072E-3,1.0987512E-2,4.213073E-2,3.580528E-2,1.7674029E-2,2.9297363E-2],"split_indices":[0,7,0,0,0,7,7,7,7,7,0,0,0,7,0,0,0,0,0,0,0,0,0,0,0,0,0,0,0,0,0],"split_type":[0,0,0,0,0,0,0,0,0,0,0,0,0,0,0,0,0,0,0,0,0,0,0,0,0,0,0,0,0,0,0],"sum_hessian":[9.455367E4,4.4504223E4,5.004945E4,1.8880332E4,2.5623889E4,2.7096652E4,2.2952797E4,1.445261E4,4.4277217E3,8.49818E3,1.7125709E4,5.4384824E3,2.165817E4,9.78872E3,1.3164077E4,4.7767866E3,9.675823E3,5.991269E2,3.828595E3,5.4445347E3,3.0536453E3,6.1045356E3,1.1021173E4,1.475899E3,3.9625833E3,1.280755E4,8.850621E3,3.964919E3,5.8238013E3,7.98596E3,5.1781167E3],"tree_param":{"num_deleted":"0","num_feature":"8","num_nodes":"31","size_leaf_vector":"1"}},{"base_weights":[-7.4469374E-4,-6.7770374E-1,6.0130614E-1,-1.0244151E0,-4.2354015E-1,3.0428785E-1,9.533627E-1,-5.937575E-1,-1.1615899E0,-2.5714195E-1,-7.6148003E-1,9.613633E-1,2.3716797E-1,1.2109183E0,6.9057757E-1,-4.372052E-2,-1.3758014E-2,-4.1355122E-2,-3.1643372E-2,-1.1749934E-2,-4.5150584E-3,-2.7837157E-2,-1.7877156E-2,-1.9280022E-2,3.3350505E-2,2.3204293E-3,1.1570708E-2,4.0117476E-2,3.2445297E-2,1.7624114E-2,2.9786963E-2],"categories":[],"categories_nodes":[],"categories_segments":[],"categories_sizes":[],"default_left":[0,0,0,0,0,0,0,0,0,0,0,0,0,0,0,0,0,0,0,0,0,0,0,0,0,0,0,0,0,0,0],"id":20,"left_children":[1,3,5,7,9,11,13,15,17,19,21,23,25,27,29,-1,-1,-1,-1,-1,-1,-1,-1,-1,-1,-1,-1,-1,-1,-1,-1],"loss_changes":[3.8335348E4,3.9011816E3,5.2055137E3,1.1056348E3,1.4364971E3,1.1907397E3,1.5410215E3,5.2762366E2,3.2759375E2,2.4555164E2,2.3171631E2,6.041101E2,5.815917E2,1.8661719E2,3.5097803E2,0E0,0E0,0E0,0E0,0E0,0E0,0E0,0E0,0E0,0E0,0E0,0E0,0E0,0E0,0E0,0E0],"parents":[2147483647,0,0,1,1,2,2,3,3,4,4,5,5,6,6,7,7,8,8,9,9,10,10,11,11,12,12,13,13,14,14],"right_children":[2,4,6,8,10,12,14,16,18,20,22,24,26,28,30,-1,-1,-1,-1,-1,-1,-1,-1,-1,-1,-1,-1,-1,-1,-1,-1],"split_conditions":[-6.0581588E-5,7E0,7.054496E-4,4.438382E-4,9.7178516E-4,3E0,7E0,2E0,3E0,-4.3387932E-4,1E1,0E0,2.3746632E-4,4E0,1.960058E-3,-4.372052E-2,-1.3758014E-2,-4.1355122E-2,-3.1643372E-2,-1.1749934E-2,-4.5150584E-3,-2.7837157E-2,-1.7877156E-2,-1.9280022E-2,3.3350505E-2,2.3204293E-3,1.1570708E-2,4.0117476E-2,3.2445297E-2,1.7624114E-2,2.9786963E-2],"split_indices":[0,7,0,1,1,7,7,7,7,0,7,0,0,7,1,0,0,0,0,0,0,0,0,0,0,0,0,0,0,0,0],"split_type":[0,0,0,0,0,0,0,0,0,0,0,0,0,0,0,0,0,0,0,0,0,0,0,0,0,0,0,0,0,0,0],"sum_hessian":[9.405775E4,4.4274457E4,4.978329E4,1.8726332E4,2.5548125E4,2.7003344E4,2.2779945E4,4.525121E3,1.4201211E4,1.7120115E4,8.42801E3,2.5014897E3,2.4501854E4,1.1502621E4,1.1277323E4,6.1104333E2,3.9140776E3,4.681662E3,9.519549E3,7.5691865E3,9.550928E3,4.200915E3,4.227094E3,2.1405751E2,2.2874324E3,1.1802772E4,1.2699082E4,5.815797E3,5.6868247E3,8.411509E3,2.8658152E3],"tree_param":{"num_deleted":"0","num_feature":"8","num_nodes":"31","size_leaf_vector":"1"}},{"base_weights":[4.9161806E-4,-3.6736885E-1,3.8705978E-1,-1.8382247E-1,-7.642876E-1,1.7961405E-1,7.293665E-1,-8.2399644E-2,-3.3523855E-1,-8.71036E-1,-2.9359493E-1,5.6687877E-2,2.972554E-1,3.598762E-1,8.2284003E-1,9.878522E-5,-4.4044065E-3,-1.31182885E-2,-4.696825E-3,-2.1516988E-2,-3.0845718E-2,-1.4355971E-2,-4.898811E-3,5.2110543E-3,4.067274E-4,1.35761965E-2,5.4286737E-3,1.3651063E-2,3.3956412E-3,2.0378357E-2,3.1288758E-2],"categories":[],"categories_nodes":[],"categories_segments":[],"categories_sizes":[],"default_left":[0,0,0,0,0,0,0,0,0,0,0,0,0,0,0,0,0,0,0,0,0,0,0,0,0,0,0,0,0,0,0],"id":21,"left_children":[1,3,5,7,9,11,13,15,17,19,21,23,25,27,29,-1,-1,-1,-1,-1,-1,-1,-1,-1,-1,-1,-1,-1,-1,-1,-1],"loss_changes":[1.3296476E4,3.4903203E3,3.2373862E3,5.03109E2,7.609365E2,4.105323E2,5.9387695E2,1.0830786E2,2.3953357E2,2.9773242E2,6.744563E1,7.0069305E1,2.6189758E2,8.1528656E1,4.331504E2,0E0,0E0,0E0,0E0,0E0,0E0,0E0,0E0,0E0,0E0,0E0,0E0,0E0,0E0,0E0,0E0],"parents":[2147483647,0,0,1,1,2,2,3,3,4,4,5,5,6,6,7,7,8,8,9,9,10,10,11,11,12,12,13,13,14,14],"right_children":[2,4,6,8,10,12,14,16,18,20,22,24,26,28,30,-1,-1,-1,-1,-1,-1,-1,-1,-1,-1,-1,-1,-1,-1,-1,-1],"split_conditions":[2.3802335E-5,1.1653625E-3,9.7178516E-4,5.084437E-4,-5.385128E-4,3.5983845E-4,5.5266323E-4,1.8509546E-4,4.7132294E-4,2.1087276E-3,-3.0918702E-4,1.8379389E-4,3.1499975E-4,6.224514E-4,2.1405737E-3,9.878522E-5,-4.4044065E-3,-1.31182885E-2,-4.696825E-3,-2.1516988E-2,-3.0845718E-2,-1.4355971E-2,-4.898811E-3,5.2110543E-3,4.067274E-4,1.35761965E-2,5.4286737E-3,1.3651063E-2,3.3956412E-3,2.0378357E-2,3.1288758E-2],"split_indices":[4,1,1,1,4,1,4,1,5,1,4,5,5,5,1,0,0,0,0,0,0,0,0,0,0,0,0,0,0,0,0],"split_type":[0,0,0,0,0,0,0,0,0,0,0,0,0,0,0,0,0,0,0,0,0,0,0,0,0,0,0,0,0,0,0],"sum_hessian":[9.350138E4,4.791E4,4.559138E4,3.2761588E4,1.5148414E4,2.83887E4,1.720268E4,1.9620654E4,1.3140934E4,1.2347316E4,2.8010977E3,1.388325E4,1.450545E4,3.4742441E3,1.3728437E4,8.420056E3,1.1200599E4,8.363391E3,4.777543E3,6.243012E3,6.104304E3,1.1567051E3,1.6443926E3,3.7382434E3,1.0145007E4,6.2103857E3,8.295064E3,2.5065173E3,9.6772687E2,8.311655E3,5.416781E3],"tree_param":{"num_deleted":"0","num_feature":"8","num_nodes":"31","size_leaf_vector":"1"}},{"base_weights":[-1.6246384E-3,-6.130104E-1,6.1923355E-1,-3.8123825E-1,-9.9713326E-1,3.8248715E-1,9.972081E-1,-9.5901847E-1,-2.7471507E-1,-1.2335666E0,-7.3138094E-1,9.709488E-1,2.7488136E-1,1.1634159E0,6.29071E-1,-4.2460375E-2,-2.297081E-2,-3.0387163E-3,-1.2339959E-2,-4.031355E-2,-3.35845E-2,-1.7758336E-2,-2.7812142E-2,4.339275E-2,2.298057E-2,3.3605967E-3,1.226326E-2,3.8923785E-2,3.053543E-2,2.355956E-2,1.5019506E-2],"categories":[],"categories_nodes":[],"categories_segments":[],"categories_sizes":[],"default_left":[0,0,0,0,0,0,0,0,0,0,0,0,0,0,0,0,0,0,0,0,0,0,0,0,0,0,0,0,0,0,0],"id":22,"left_children":[1,3,5,7,9,11,13,15,17,19,21,23,25,27,29,-1,-1,-1,-1,-1,-1,-1,-1,-1,-1,-1,-1,-1,-1,-1,-1],"loss_changes":[3.53712E4,4.179549E3,4.1368184E3,1.8020566E3,1.1092012E3,1.7999458E3,1.0887305E3,4.0102783E2,5.857981E2,1.1603906E2,2.264878E2,4.2709424E2,5.240873E2,2.3801758E2,1.1078003E2,0E0,0E0,0E0,0E0,0E0,0E0,0E0,0E0,0E0,0E0,0E0,0E0,0E0,0E0,0E0,0E0],"parents":[2147483647,0,0,1,1,2,2,3,3,4,4,5,5,6,6,7,7,8,8,9,9,10,10,11,11,12,12,13,13,14,14],"right_children":[2,4,6,8,10,12,14,16,18,20,22,24,26,28,30,-1,-1,-1,-1,-1,-1,-1,-1,-1,-1,-1,-1,-1,-1,-1,-1],"split_conditions":[6.3409307E-6,9.7178516E-4,9.401851E-4,4E0,7E0,4E0,9E0,2E0,2.9908703E-4,4E0,1.8073377E-3,2E0,3.1057606E-4,5E0,1.1E1,-4.2460375E-2,-2.297081E-2,-3.0387163E-3,-1.2339959E-2,-4.031355E-2,-3.35845E-2,-1.7758336E-2,-2.7812142E-2,4.339275E-2,2.298057E-2,3.3605967E-3,1.226326E-2,3.8923785E-2,3.053543E-2,2.355956E-2,1.5019506E-2],"split_indices":[0,1,1,7,7,7,7,7,1,7,1,7,0,7,7,0,0,0,0,0,0,0,0,0,0,0,0,0,0,0,0],"split_type":[0,0,0,0,0,0,0,0,0,0,0,0,0,0,0,0,0,0,0,0,0,0,0,0,0,0,0,0,0,0,0],"sum_hessian":[9.318214E4,4.6949227E4,4.6232914E4,2.9282646E4,1.7666582E4,2.8428549E4,1.7804363E4,4.5570845E3,2.4725562E4,9.347073E3,8.319509E3,4.393558E3,2.4034992E4,1.2264835E4,5.5395283E3,1.3542252E3,3.2028594E3,1.089586E4,1.3829702E4,4.7485845E3,4.5984883E3,4.8603564E3,3.4591523E3,1.3214601E3,3.0720981E3,1.0845248E4,1.3189743E4,6.381056E3,5.883779E3,2.4967065E3,3.0428218E3],"tree_param":{"num_deleted":"0","num_feature":"8","num_nodes":"31","size_leaf_vector":"1"}},{"base_weights":[9.544367E-4,-6.004349E-1,6.005672E-1,-3.7018228E-1,-9.805914E-1,3.6688977E-1,9.751916E-1,-1.1052235E0,-2.8793898E-1,-1.1806384E0,-6.678436E-1,7.7214503E-1,2.1606012E-1,1.2458942E0,7.607248E-1,-4.255613E-2,-2.5208937E-2,-1.2823647E-2,-3.2538003E-3,-3.87616E-2,-3.0703293E-2,-1.7589586E-2,-2.9170502E-2,4.273933E-2,1.9196894E-2,3.6281822E-3,1.1410404E-2,4.0625464E-2,3.515474E-2,2.6267596E-2,1.52212335E-2],"categories":[],"categories_nodes":[],"categories_segments":[],"categories_sizes":[],"default_left":[0,0,0,0,0,0,0,0,0,0,0,0,0,0,0,0,0,0,0,0,0,0,0,0,0,0,0,0,0,0,0],"id":23,"left_children":[1,3,5,7,9,11,13,15,17,19,21,23,25,27,29,-1,-1,-1,-1,-1,-1,-1,-1,-1,-1,-1,-1,-1,-1,-1,-1],"loss_changes":[3.340422E4,4.0479004E3,4.06033E3,1.7410063E3,1.0906426E3,1.746071E3,1.0335332E3,2.3938037E2,6.486865E2,1.8499512E2,1.6843018E2,6.6771387E2,3.253274E2,6.157617E1,2.8894238E2,0E0,0E0,0E0,0E0,0E0,0E0,0E0,0E0,0E0,0E0,0E0,0E0,0E0,0E0,0E0,0E0],"parents":[2147483647,0,0,1,1,2,2,3,3,4,4,5,5,6,6,7,7,8,8,9,9,10,10,11,11,12,12,13,13,14,14],"right_children":[2,4,6,8,10,12,14,16,18,20,22,24,26,28,30,-1,-1,-1,-1,-1,-1,-1,-1,-1,-1,-1,-1,-1,-1,-1,-1],"split_conditions":[0E0,9.7178516E-4,9.297665E-4,3E0,8E0,6E0,6E0,2E0,-3.061823E-4,5E0,2.4405196E-3,2E0,4.5019167E-4,3E0,1.1E1,-4.255613E-2,-2.5208937E-2,-1.2823647E-2,-3.2538003E-3,-3.87616E-2,-3.0703293E-2,-1.7589586E-2,-2.9170502E-2,4.273933E-2,1.9196894E-2,3.6281822E-3,1.1410404E-2,4.0625464E-2,3.515474E-2,2.6267596E-2,1.52212335E-2],"split_indices":[0,1,1,7,7,7,7,7,0,7,1,7,1,7,7,0,0,0,0,0,0,0,0,0,0,0,0,0,0,0,0],"split_type":[0,0,0,0,0,0,0,0,0,0,0,0,0,0,0,0,0,0,0,0,0,0,0,0,0,0,0,0,0,0,0],"sum_hessian":[9.263292E4,4.6247945E4,4.6384977E4,2.880397E4,1.7443975E4,2.8567537E4,1.781744E4,2.89729E3,2.590668E4,1.0637193E4,6.806781E3,7.7473965E3,2.082014E4,7.873987E3,9.943452E3,1.325424E3,1.5718662E3,1.457533E4,1.133135E4,6.2208423E3,4.416351E3,5.3715957E3,1.4351853E3,1.3039727E3,6.443424E3,1.3186814E4,7.633325E3,3.1912146E3,4.682772E3,6.839956E3,3.1034958E3],"tree_param":{"num_deleted":"0","num_feature":"8","num_nodes":"31","size_leaf_vector":"1"}},{"base_weights":[4.207139E-4,-6.2036854E-1,5.5983514E-1,-3.982001E-1,-9.605571E-1,2.1470985E-1,8.214118E-1,-5.361222E-1,-2.3210563E-1,-1.126997E0,-8.1531554E-1,9.0439945E-2,3.598683E-1,6.527705E-1,1.0580829E0,-1.8558295E-2,-5.3757485E-3,-1.0897812E-2,-4.007843E-3,-3.559203E-2,-2.9594999E-2,-2.7423875E-2,-1.3959476E-2,7.594048E-4,5.250624E-3,1.904026E-2,7.86594E-3,2.4816947E-2,1.5142227E-2,2.7900493E-2,3.5592847E-2],"categories":[],"categories_nodes":[],"categories_segments":[],"categories_sizes":[],"default_left":[0,0,0,0,0,0,0,0,0,0,0,0,0,0,0,0,0,0,0,0,0,0,0,0,0,0,0,0,0,0,0],"id":24,"left_children":[1,3,5,7,9,11,13,15,17,19,21,23,25,27,29,-1,-1,-1,-1,-1,-1,-1,-1,-1,-1,-1,-1,-1,-1,-1,-1],"loss_changes":[3.197493E4,3.2980723E3,4.3719697E3,6.0470557E2,4.1586328E2,3.7665295E2,1.0988828E3,4.2455908E2,1.5473077E2,6.5862305E1,3.1811328E2,6.1975464E1,2.583385E2,4.1509814E2,1.8728125E2,0E0,0E0,0E0,0E0,0E0,0E0,0E0,0E0,0E0,0E0,0E0,0E0,0E0,0E0,0E0,0E0],"parents":[2147483647,0,0,1,1,2,2,3,3,4,4,5,5,6,6,7,7,8,8,9,9,10,10,11,11,12,12,13,13,14,14],"right_children":[2,4,6,8,10,12,14,16,18,20,22,24,26,28,30,-1,-1,-1,-1,-1,-1,-1,-1,-1,-1,-1,-1,-1,-1,-1,-1],"split_conditions":[-5.225848E-5,9.7178516E-4,4.881926E-4,-3.6204312E-4,-1.8657213E-3,2.0505316E-4,1.3876997E-3,5.978175E-4,2.5789996E-4,8.765843E-4,7.0439227E-4,8.7967215E-5,2.0610658E-4,3.6364704E-4,2.2012417E-3,-1.8558295E-2,-5.3757485E-3,-1.0897812E-2,-4.007843E-3,-3.559203E-2,-2.9594999E-2,-2.7423875E-2,-1.3959476E-2,7.594048E-4,5.250624E-3,1.904026E-2,7.86594E-3,2.4816947E-2,1.5142227E-2,2.7900493E-2,3.5592847E-2],"split_indices":[0,1,0,0,0,1,1,5,5,5,5,1,5,5,0,0,0,0,0,0,0,0,0,0,0,0,0,0,0,0,0],"split_type":[0,0,0,0,0,0,0,0,0,0,0,0,0,0,0,0,0,0,0,0,0,0,0,0,0,0,0,0,0,0,0],"sum_hessian":[9.2070875E4,4.364138E4,4.8429496E4,2.6401441E4,1.7239938E4,2.0880932E4,2.7548566E4,1.4422776E4,1.1978664E4,8.0305503E3,9.209387E3,1.125078E4,9.630151E3,1.6088426E4,1.146014E4,1.1714736E4,2.7080408E3,5.136875E3,6.8417896E3,5.6389043E3,2.391646E3,7.1805317E3,2.0288551E3,6.357141E3,4.8936387E3,2.5237576E3,7.106394E3,7.3828E3,8.705626E3,5.7404277E3,5.719712E3],"tree_param":{"num_deleted":"0","num_feature":"8","num_nodes":"31","size_leaf_vector":"1"}},{"base_weights":[1.4128761E-3,-6.061288E-1,5.399121E-1,-1.0073596E0,-3.967911E-1,3.15476E-1,9.405538E-1,-1.13716E0,-5.940781E-1,-2.473082E-1,-7.619836E-1,7.416369E-1,2.0464872E-1,1.1395744E0,6.36795E-1,-3.944202E-2,-3.0710855E-2,-4.1946486E-2,-1.3255268E-2,-1.1626739E-2,-4.2824387E-3,-2.7505478E-2,-1.6264684E-2,8.686539E-3,2.9167403E-2,2.3652094E-3,1.0182709E-2,3.754687E-2,2.94462E-2,2.3263762E-2,1.3850354E-2],"categories":[],"categories_nodes":[],"categories_segments":[],"categories_sizes":[],"default_left":[0,0,0,0,0,0,0,0,0,0,0,0,0,0,0,0,0,0,0,0,0,0,0,0,0,0,0,0,0,0,0],"id":25,"left_children":[1,3,5,7,9,11,13,15,17,19,21,23,25,27,29,-1,-1,-1,-1,-1,-1,-1,-1,-1,-1,-1,-1,-1,-1,-1,-1],"loss_changes":[2.9930605E4,3.6102139E3,4.360632E3,7.899199E2,1.542002E3,1.4680771E3,1.0519717E3,2.2460449E2,4.3085095E2,2.9392212E2,2.7881787E2,6.685674E2,4.183092E2,1.8493848E2,1.6707056E2,0E0,0E0,0E0,0E0,0E0,0E0,0E0,0E0,0E0,0E0,0E0,0E0,0E0,0E0,0E0,0E0],"parents":[2147483647,0,0,1,1,2,2,3,3,4,4,5,5,6,6,7,7,8,8,9,9,10,10,11,11,12,12,13,13,14,14],"right_children":[2,4,6,8,10,12,14,16,18,20,22,24,26,28,30,-1,-1,-1,-1,-1,-1,-1,-1,-1,-1,-1,-1,-1,-1,-1,-1],"split_conditions":[-6.0581588E-5,6E0,9.297665E-4,-4.3387932E-4,1.1135832E-3,5E0,8E0,3E0,2E0,-4.8581377E-4,1E1,2.2519416E-4,3.1057606E-4,5E0,1.1E1,-3.944202E-2,-3.0710855E-2,-4.1946486E-2,-1.3255268E-2,-1.1626739E-2,-4.2824387E-3,-2.7505478E-2,-1.6264684E-2,8.686539E-3,2.9167403E-2,2.3652094E-3,1.0182709E-2,3.754687E-2,2.94462E-2,2.3263762E-2,1.3850354E-2],"split_indices":[0,7,1,0,1,7,7,7,7,0,7,1,0,7,7,0,0,0,0,0,0,0,0,0,0,0,0,0,0,0,0],"split_type":[0,0,0,0,0,0,0,0,0,0,0,0,0,0,0,0,0,0,0,0,0,0,0,0,0,0,0,0,0,0,0],"sum_hessian":[9.148394E4,4.2986215E4,4.849772E4,1.4736819E4,2.8249396E4,3.108561E4,1.7412111E4,1.1213284E4,3.5235354E3,2.0045799E4,8.203598E3,6.4144854E3,2.4671123E4,1.0518024E4,6.8940864E3,4.3674927E3,6.8457915E3,5.5957434E2,2.963961E3,8.560559E3,1.1485239E4,4.81108E3,3.3925176E3,2.1675315E3,4.246954E3,1.2760842E4,1.1910282E4,6.151771E3,4.366253E3,3.8455835E3,3.048503E3],"tree_param":{"num_deleted":"0","num_feature":"8","num_nodes":"31","size_leaf_vector":"1"}},{"base_weights":[1.2903663E-3,-5.523068E-1,5.6395936E-1,-3.3591682E-1,-9.244153E-1,9.1351074E-1,3.271723E-1,-1.057214E0,-2.5814277E-1,-1.1312213E0,-6.0863477E-1,5.056276E-1,1.0773892E0,1.800538E-1,6.7267233E-1,-4.0764876E-2,-2.416319E-2,-2.2249217E-3,-1.1417253E-2,-3.7396897E-2,-2.9104149E-2,-2.2290822E-2,-1.3130462E-2,4.238938E-2,1.1124458E-2,3.8844083E-2,2.9141331E-2,2.7585633E-3,9.397191E-3,2.3991834E-2,1.3621347E-2],"categories":[],"categories_nodes":[],"categories_segments":[],"categories_sizes":[],"default_left":[0,0,0,0,0,0,0,0,0,0,0,0,0,0,0,0,0,0,0,0,0,0,0,0,0,0,0,0,0,0,0],"id":26,"left_children":[1,3,5,7,9,11,13,15,17,19,21,23,25,27,29,-1,-1,-1,-1,-1,-1,-1,-1,-1,-1,-1,-1,-1,-1,-1,-1],"loss_changes":[2.8328258E4,3.6908662E3,3.73279E3,1.6258564E3,1.1000508E3,1.2169092E3,1.3666709E3,2.1313037E2,5.89386E2,1.8800195E2,1.5297144E2,6.38275E2,2.9819434E2,2.2127979E2,2.2269702E2,0E0,0E0,0E0,0E0,0E0,0E0,0E0,0E0,0E0,0E0,0E0,0E0,0E0,0E0,0E0,0E0],"parents":[2147483647,0,0,1,1,2,2,3,3,4,4,5,5,6,6,7,7,8,8,9,9,10,10,11,11,12,12,13,13,14,14],"right_children":[2,4,6,8,10,12,14,16,18,20,22,24,26,28,30,-1,-1,-1,-1,-1,-1,-1,-1,-1,-1,-1,-1,-1,-1,-1,-1],"split_conditions":[6.3409307E-6,9.7178516E-4,7E0,3E0,8E0,4.62551E-4,9.4997784E-4,2E0,2.6710305E-4,5E0,1.1E1,2E0,3E0,4.2487495E-4,1.1E1,-4.0764876E-2,-2.416319E-2,-2.2249217E-3,-1.1417253E-2,-3.7396897E-2,-2.9104149E-2,-2.2290822E-2,-1.3130462E-2,4.238938E-2,1.1124458E-2,3.8844083E-2,2.9141331E-2,2.7585633E-3,9.397191E-3,2.3991834E-2,1.3621347E-2],"split_indices":[0,1,7,7,7,1,0,7,1,7,7,7,7,0,7,0,0,0,0,0,0,0,0,0,0,0,0,0,0,0,0],"split_type":[0,0,0,0,0,0,0,0,0,0,0,0,0,0,0,0,0,0,0,0,0,0,0,0,0,0,0,0,0,0,0],"sum_hessian":[9.094179E4,4.584044E4,4.5101348E4,2.8986186E4,1.6854258E4,1.8212582E4,2.6888766E4,2.8200159E3,2.616617E4,1.018287E4,6.671387E3,5.2212656E3,1.2991317E4,1.8859611E4,8.029153E3,1.2810154E3,1.5390006E3,1.0455832E4,1.5710338E4,5.930007E3,4.252864E3,3.733214E3,2.938173E3,6.741862E2,4.5470796E3,4.2545845E3,8.736732E3,1.1352013E4,7.5075986E3,5.0763623E3,2.9527908E3],"tree_param":{"num_deleted":"0","num_feature":"8","num_nodes":"31","size_leaf_vector":"1"}},{"base_weights":[6.357856E-4,-5.368891E-1,5.5488473E-1,-3.2440934E-1,-9.104075E-1,8.998557E-1,3.22448E-1,-7.7654773E-1,-2.0550993E-1,-1.1546397E0,-6.454176E-1,4.728441E-1,1.0503715E0,1.7903635E-1,6.565564E-1,-3.9515566E-2,-1.9027587E-2,-9.821626E-3,-2.3571295E-3,-3.8183197E-2,-3.0997936E-2,-1.601093E-2,-2.6871707E-2,4.1902788E-2,1.0087435E-2,3.6295895E-2,2.689903E-2,2.7803748E-3,9.1945175E-3,2.3387827E-2,1.33813275E-2],"categories":[],"categories_nodes":[],"categories_segments":[],"categories_sizes":[],"default_left":[0,0,0,0,0,0,0,0,0,0,0,0,0,0,0,0,0,0,0,0,0,0,0,0,0,0,0,0,0,0,0],"id":27,"left_children":[1,3,5,7,9,11,13,15,17,19,21,23,25,27,29,-1,-1,-1,-1,-1,-1,-1,-1,-1,-1,-1,-1,-1,-1,-1,-1],"loss_changes":[2.6928947E4,3.6415176E3,3.5680762E3,1.5722952E3,1.0760352E3,1.1508662E3,1.2739106E3,4.6766675E2,3.582998E2,1.2280859E2,2.2273267E2,5.8897144E2,3.2366406E2,2.0474103E2,2.0647363E2,0E0,0E0,0E0,0E0,0E0,0E0,0E0,0E0,0E0,0E0,0E0,0E0,0E0,0E0,0E0,0E0],"parents":[2147483647,0,0,1,1,2,2,3,3,4,4,5,5,6,6,7,7,8,8,9,9,10,10,11,11,12,12,13,13,14,14],"right_children":[2,4,6,8,10,12,14,16,18,20,22,24,26,28,30,-1,-1,-1,-1,-1,-1,-1,-1,-1,-1,-1,-1,-1,-1,-1,-1],"split_conditions":[1.5930631E-5,9.7178516E-4,7E0,5E0,7E0,4.1807082E-4,9.4997784E-4,2E0,-3.2737828E-4,4E0,2.1087276E-3,2E0,4E0,4.2487495E-4,1.1E1,-3.9515566E-2,-1.9027587E-2,-9.821626E-3,-2.3571295E-3,-3.8183197E-2,-3.0997936E-2,-1.601093E-2,-2.6871707E-2,4.1902788E-2,1.0087435E-2,3.6295895E-2,2.689903E-2,2.7803748E-3,9.1945175E-3,2.3387827E-2,1.33813275E-2],"split_indices":[0,1,7,7,7,1,0,7,0,7,1,7,7,0,7,0,0,0,0,0,0,0,0,0,0,0,0,0,0,0,0],"split_type":[0,0,0,0,0,0,0,0,0,0,0,0,0,0,0,0,0,0,0,0,0,0,0,0,0,0,0,0,0,0,0],"sum_hessian":[9.0387086E4,4.5885844E4,4.450124E4,2.924908E4,1.6636764E4,1.7912916E4,2.658832E4,6.088986E3,2.3160094E4,8.655723E3,7.981042E3,4.669564E3,1.3243353E4,1.8604234E4,7.9840854E3,1.2669714E3,4.8220146E3,1.1814798E4,1.1345297E4,4.3816304E3,4.274092E3,5.5202886E3,2.4607537E3,6.002619E2,4.0693022E3,6.4966553E3,6.7466973E3,1.1090888E4,7.513347E3,5.0372603E3,2.946825E3],"tree_param":{"num_deleted":"0","num_feature":"8","num_nodes":"31","size_leaf_vector":"1"}},{"base_weights":[9.701159E-4,-5.679591E-1,5.0434136E-1,-9.6473455E-1,-3.6560985E-1,2.9872993E-1,9.052776E-1,-1.1342884E0,-6.554969E-1,-2.4855234E-1,-7.734583E-1,7.0723695E-1,1.9413142E-1,1.1042987E0,6.017966E-1,-3.866263E-2,-3.1024668E-2,-4.04738E-2,-1.5838338E-2,-1.1249605E-2,-4.051357E-3,-2.775197E-2,-1.6228633E-2,7.8033498E-3,2.7880786E-2,1.7205267E-3,9.098112E-3,3.7525203E-2,2.971989E-2,2.2045724E-2,1.3015504E-2],"categories":[],"categories_nodes":[],"categories_segments":[],"categories_sizes":[],"default_left":[0,0,0,0,0,0,0,0,0,0,0,0,0,0,0,0,0,0,0,0,0,0,0,0,0,0,0,0,0,0,0],"id":28,"left_children":[1,3,5,7,9,11,13,15,17,19,21,23,25,27,29,-1,-1,-1,-1,-1,-1,-1,-1,-1,-1,-1,-1,-1,-1,-1,-1],"loss_changes":[2.5735027E4,3.386499E3,3.9301797E3,7.4624805E2,1.3336387E3,1.3465779E3,9.754922E2,1.4096777E2,4.45865E2,3.1150647E2,2.191023E2,6.378247E2,3.7458594E2,1.6128027E2,1.4277466E2,0E0,0E0,0E0,0E0,0E0,0E0,0E0,0E0,0E0,0E0,0E0,0E0,0E0,0E0,0E0,0E0],"parents":[2147483647,0,0,1,1,2,2,3,3,4,4,5,5,6,6,7,7,8,8,9,9,10,10,11,11,12,12,13,13,14,14],"right_children":[2,4,6,8,10,12,14,16,18,20,22,24,26,28,30,-1,-1,-1,-1,-1,-1,-1,-1,-1,-1,-1,-1,-1,-1,-1,-1],"split_conditions":[-6.0581588E-5,6E0,9.702786E-4,-6.409021E-4,1.3541173E-3,5E0,8E0,3E0,2E0,-4.8581377E-4,1E1,2.2519416E-4,2.5641164E-4,4E0,1.1E1,-3.866263E-2,-3.1024668E-2,-4.04738E-2,-1.5838338E-2,-1.1249605E-2,-4.051357E-3,-2.775197E-2,-1.6228633E-2,7.8033498E-3,2.7880786E-2,1.7205267E-3,9.098112E-3,3.7525203E-2,2.971989E-2,2.2045724E-2,1.3015504E-2],"split_indices":[0,7,0,0,1,7,7,7,7,0,7,1,1,7,7,0,0,0,0,0,0,0,0,0,0,0,0,0,0,0,0],"split_type":[0,0,0,0,0,0,0,0,0,0,0,0,0,0,0,0,0,0,0,0,0,0,0,0,0,0,0,0,0,0,0],"sum_hessian":[8.98604E4,4.218321E4,4.7677188E4,1.4245744E4,2.7937467E4,3.1516424E4,1.6160765E4,9.199193E3,5.046551E3,2.1708475E4,6.2289907E3,6.4235684E3,2.5092855E4,9.758535E3,6.4022295E3,3.613344E3,5.5858496E3,7.8238116E2,4.26417E3,1.0268353E4,1.1440123E4,3.7686267E3,2.4603643E3,2.1326956E3,4.290873E3,1.1136877E4,1.39559795E4,4.2577944E3,5.50074E3,3.5702288E3,2.832001E3],"tree_param":{"num_deleted":"0","num_feature":"8","num_nodes":"31","size_leaf_vector":"1"}},{"base_weights":[-6.5656047E-4,-5.80354E-1,4.6933517E-1,-9.732311E-1,-3.7751085E-1,2.5659654E-1,8.6349946E-1,-1.1209992E0,-6.9125724E-1,-7.648376E-1,-2.6226234E-1,8.2622004E-1,1.9958663E-1,1.1564182E0,6.445721E-1,-3.8183812E-2,-3.068717E-2,-4.0002536E-2,-1.7218454E-2,-2.6369179E-2,-1.3979754E-2,-9.491273E-3,-4.2790215E-4,-1.7228054E-2,3.0722164E-2,1.4308394E-3,9.977704E-3,3.8288794E-2,3.2275844E-2,1.623211E-2,2.8369095E-2],"categories":[],"categories_nodes":[],"categories_segments":[],"categories_sizes":[],"default_left":[0,0,0,0,0,0,0,0,0,0,0,0,0,0,0,0,0,0,0,0,0,0,0,0,0,0,0,0,0,0,0],"id":29,"left_children":[1,3,5,7,9,11,13,15,17,19,21,23,25,27,29,-1,-1,-1,-1,-1,-1,-1,-1,-1,-1,-1,-1,-1,-1,-1,-1],"loss_changes":[2.4301133E4,3.1822285E3,4.130247E3,5.65791E2,1.1755593E3,1.0387764E3,1.1064883E3,1.3152441E2,3.5164697E2,2.0559058E2,2.724348E2,8.0701013E2,5.875342E2,6.9930664E1,3.0745703E2,0E0,0E0,0E0,0E0,0E0,0E0,0E0,0E0,0E0,0E0,0E0,0E0,0E0,0E0,0E0,0E0],"parents":[2147483647,0,0,1,1,2,2,3,3,4,4,5,5,6,6,7,7,8,8,9,9,10,10,11,11,12,12,13,13,14,14],"right_children":[2,4,6,8,10,12,14,16,18,20,22,24,26,28,30,-1,-1,-1,-1,-1,-1,-1,-1,-1,-1,-1,-1,-1,-1,-1,-1],"split_conditions":[-1.0561184E-4,6E0,8.876393E-4,-6.5696816E-4,-1.379292E-3,3E0,6E0,3E0,2E0,1.1E1,6.224514E-4,0E0,2.3746632E-4,3E0,2.2012417E-3,-3.8183812E-2,-3.068717E-2,-4.0002536E-2,-1.7218454E-2,-2.6369179E-2,-1.3979754E-2,-9.491273E-3,-4.2790215E-4,-1.7228054E-2,3.0722164E-2,1.4308394E-3,9.977704E-3,3.8288794E-2,3.2275844E-2,1.623211E-2,2.8369095E-2],"split_indices":[0,7,0,0,0,7,7,7,7,7,5,0,0,7,0,0,0,0,0,0,0,0,0,0,0,0,0,0,0,0,0],"split_type":[0,0,0,0,0,0,0,0,0,0,0,0,0,0,0,0,0,0,0,0,0,0,0,0,0,0,0,0,0,0,0],"sum_hessian":[8.919186E4,3.993499E4,4.9256867E4,1.3596598E4,2.6338393E4,3.1991852E4,1.7265016E4,8.919414E3,4.6771836E3,6.0385186E3,2.0299873E4,2.9093293E3,2.9082523E4,7.3827793E3,9.882236E3,3.4966123E3,5.4228013E3,7.208434E2,3.9563403E3,4.368256E3,1.670263E3,1.6663596E4,3.6362776E3,3.598986E2,2.5494307E3,1.3577814E4,1.5504709E4,2.9612913E3,4.421488E3,7.3561064E3,2.52613E3],"tree_param":{"num_deleted":"0","num_feature":"8","num_nodes":"31","size_leaf_vector":"1"}},{"base_weights":[1.0528917E-3,-5.4646045E-1,4.765438E-1,-3.6155733E-1,-9.0210843E-1,2.6354513E-1,8.4344655E-1,-2.2242324E-1,-4.9860045E-1,-7.76455E-1,-1.0776584E0,6.600532E-2,3.93914E-1,7.2881156E-1,1.0927798E0,-1.1044804E-2,-3.6248157E-3,-2.0255385E-2,-9.744203E-3,-2.6369309E-2,-1.27078E-2,-3.4226716E-2,-2.8315717E-2,2.0559963E-4,4.569621E-3,1.660244E-2,7.318641E-3,2.5010902E-2,1.2314612E-2,3.526399E-2,2.957373E-2],"categories":[],"categories_nodes":[],"categories_segments":[],"categories_sizes":[],"default_left":[0,0,0,0,0,0,0,0,0,0,0,0,0,0,0,0,0,0,0,0,0,0,0,0,0,0,0,0,0,0,0],"id":30,"left_children":[1,3,5,7,9,11,13,15,17,19,21,23,25,27,29,-1,-1,-1,-1,-1,-1,-1,-1,-1,-1,-1,-1,-1,-1,-1,-1],"loss_changes":[2.3089518E4,2.7105342E3,3.7093438E3,5.17072E2,3.1019434E2,7.734402E2,4.9751855E2,1.9926453E2,4.1910132E2,2.9705566E2,4.8668457E1,6.0971638E1,4.3262402E2,3.9851416E2,4.740088E1,0E0,0E0,0E0,0E0,0E0,0E0,0E0,0E0,0E0,0E0,0E0,0E0,0E0,0E0,0E0,0E0],"parents":[2147483647,0,0,1,1,2,2,3,3,4,4,5,5,6,6,7,7,8,8,9,9,10,10,11,11,12,12,13,13,14,14],"right_children":[2,4,6,8,10,12,14,16,18,20,22,24,26,28,30,-1,-1,-1,-1,-1,-1,-1,-1,-1,-1,-1,-1,-1,-1,-1,-1],"split_conditions":[-6.884786E-5,1.1135832E-3,8.675454E-4,4.3729815E-4,2.1405737E-3,2.0505316E-4,2.1405737E-3,2.5789996E-4,3.7617417E-4,7.3135237E-4,8.8850386E-4,8.7967215E-5,3.2601826E-4,6.54611E-4,7.608944E-4,-1.1044804E-2,-3.6248157E-3,-2.0255385E-2,-9.744203E-3,-2.6369309E-2,-1.27078E-2,-3.4226716E-2,-2.8315717E-2,2.0559963E-4,4.569621E-3,1.660244E-2,7.318641E-3,2.5010902E-2,1.2314612E-2,3.526399E-2,2.957373E-2],"split_indices":[0,1,0,1,1,1,1,5,5,5,5,1,5,5,5,0,0,0,0,0,0,0,0,0,0,0,0,0,0,0,0],"split_type":[0,0,0,0,0,0,0,0,0,0,0,0,0,0,0,0,0,0,0,0,0,0,0,0,0,0,0,0,0,0,0],"sum_hessian":[8.8688664E4,4.1222293E4,4.7466367E4,2.7122957E4,1.4099338E4,3.0032984E4,1.7433383E4,1.34601045E4,1.3662853E4,8.220658E3,5.87868E3,1.1941017E4,1.8091969E4,1.1945273E4,5.48811E3,5.52788E3,7.9322246E3,6.775687E3,6.8871655E3,6.3687583E3,1.8518994E3,3.9869773E3,1.891703E3,7.086032E3,4.8549844E3,8.765771E3,9.326196E3,8.983626E3,2.961648E3,3.0900034E3,2.3981064E3],"tree_param":{"num_deleted":"0","num_feature":"8","num_nodes":"31","size_leaf_vector":"1"}},{"base_weights":[3.8360758E-4,-5.6125957E-1,4.3831655E-1,-8.9421535E-1,-3.2664165E-1,2.0198661E-1,7.7763844E-1,-1.1276674E0,-7.026006E-1,-2.0709565E-1,-6.176323E-1,4.3386132E-1,9.8602116E-2,1.1036466E0,5.552569E-1,-3.707558E-2,-3.0517565E-2,-3.2968696E-2,-1.629026E-2,-7.7372566E-3,1.3093787E-3,-2.3358813E-2,-1.3616889E-2,1.2117857E-3,1.9617599E-2,3.8616837E-4,5.1619806E-3,3.7498694E-2,3.0227963E-2,1.3812435E-2,2.7042216E-2],"categories":[],"categories_nodes":[],"categories_segments":[],"categories_sizes":[],"default_left":[0,0,0,0,0,0,0,0,0,0,0,0,0,0,0,0,0,0,0,0,0,0,0,0,0,0,0,0,0,0,0],"id":31,"left_children":[1,3,5,7,9,11,13,15,17,19,21,23,25,27,29,-1,-1,-1,-1,-1,-1,-1,-1,-1,-1,-1,-1,-1,-1,-1,-1],"loss_changes":[2.1694443E4,3.0184072E3,3.9740957E3,7.1374023E2,7.8851587E2,7.0029224E2,1.4744258E3,8.473633E1,5.5449365E2,2.0476642E2,1.73656E2,7.799939E2,1.27261215E2,1.146709E2,3.9673535E2,0E0,0E0,0E0,0E0,0E0,0E0,0E0,0E0,0E0,0E0,0E0,0E0,0E0,0E0,0E0,0E0],"parents":[2147483647,0,0,1,1,2,2,3,3,4,4,5,5,6,6,7,7,8,8,9,9,10,10,11,11,12,12,13,13,14,14],"right_children":[2,4,6,8,10,12,14,16,18,20,22,24,26,28,30,-1,-1,-1,-1,-1,-1,-1,-1,-1,-1,-1,-1,-1,-1,-1,-1],"split_conditions":[-1.251817E-4,7E0,7.054496E-4,-1.1414755E-3,1.1135832E-3,7E0,6E0,4E0,3E0,6.224514E-4,1E1,1.3911622E-4,1.7128504E-4,3E0,2.1405737E-3,-3.707558E-2,-3.0517565E-2,-3.2968696E-2,-1.629026E-2,-7.7372566E-3,1.3093787E-3,-2.3358813E-2,-1.3616889E-2,1.2117857E-3,1.9617599E-2,3.8616837E-4,5.1619806E-3,3.7498694E-2,3.0227963E-2,1.3812435E-2,2.7042216E-2],"split_indices":[0,7,0,0,1,7,7,7,7,5,7,0,1,7,1,0,0,0,0,0,0,0,0,0,0,0,0,0,0,0,0],"split_type":[0,0,0,0,0,0,0,0,0,0,0,0,0,0,0,0,0,0,0,0,0,0,0,0,0,0,0,0,0,0,0],"sum_hessian":[8.82004E4,3.8642117E4,4.955828E4,1.5972327E4,2.2669791E4,2.9213408E4,2.0344875E4,7.1979214E3,8.774406E3,1.60696875E4,6.6001035E3,9.007606E3,2.02058E4,8.248593E3,1.2096283E4,3.6305254E3,3.5673962E3,2.5171145E3,6.2572915E3,1.336187E4,2.7078179E3,3.3260164E3,3.2740872E3,3.231254E3,5.776352E3,9.325011E3,1.088079E4,3.264207E3,4.9843857E3,9.496617E3,2.599666E3],"tree_param":{"num_deleted":"0","num_feature":"8","num_nodes":"31","size_leaf_vector":"1"}},{"base_weights":[-1.5978355E-4,-5.4239416E-1,4.3740878E-1,-9.302107E-1,-3.463528E-1,2.4491766E-1,8.3432317E-1,-1.0836216E0,-6.474954E-1,-2.3562741E-1,-7.16498E-1,5.48038E-1,1.393596E-1,1.1250974E0,6.191437E-1,-3.731861E-2,-2.9422933E-2,-3.9217044E-2,-1.5948288E-2,-1.1360789E-2,-4.1280016E-3,-2.5976397E-2,-1.4742537E-2,4.1536866E-3,2.3367643E-2,1.963985E-3,8.499688E-3,3.7365876E-2,3.132537E-2,2.3016691E-2,1.2860537E-2],"categories":[],"categories_nodes":[],"categories_segments":[],"categories_sizes":[],"default_left":[0,0,0,0,0,0,0,0,0,0,0,0,0,0,0,0,0,0,0,0,0,0,0,0,0,0,0,0,0,0,0],"id":32,"left_children":[1,3,5,7,9,11,13,15,17,19,21,23,25,27,29,-1,-1,-1,-1,-1,-1,-1,-1,-1,-1,-1,-1,-1,-1,-1,-1],"loss_changes":[2.0802428E4,2.9765645E3,3.706916E3,5.694824E2,1.0658213E3,1.0454557E3,9.907539E2,1.392959E2,3.530492E2,2.8074487E2,2.0092505E2,7.9799E2,2.578188E2,6.436133E1,2.5656982E2,0E0,0E0,0E0,0E0,0E0,0E0,0E0,0E0,0E0,0E0,0E0,0E0,0E0,0E0,0E0,0E0],"parents":[2147483647,0,0,1,1,2,2,3,3,4,4,5,5,6,6,7,7,8,8,9,9,10,10,11,11,12,12,13,13,14,14],"right_children":[2,4,6,8,10,12,14,16,18,20,22,24,26,28,30,-1,-1,-1,-1,-1,-1,-1,-1,-1,-1,-1,-1,-1,-1,-1,-1],"split_conditions":[-1.0561184E-4,6E0,9.401851E-4,-6.5696816E-4,1.3541173E-3,6E0,6E0,3E0,2E0,1E1,1E1,2.0505316E-4,4.1807082E-4,3E0,1E1,-3.731861E-2,-2.9422933E-2,-3.9217044E-2,-1.5948288E-2,-1.1360789E-2,-4.1280016E-3,-2.5976397E-2,-1.4742537E-2,4.1536866E-3,2.3367643E-2,1.963985E-3,8.499688E-3,3.7365876E-2,3.132537E-2,2.3016691E-2,1.2860537E-2],"split_indices":[0,7,1,0,1,7,7,7,7,7,7,1,1,7,7,0,0,0,0,0,0,0,0,0,0,0,0,0,0,0,0],"split_type":[0,0,0,0,0,0,0,0,0,0,0,0,0,0,0,0,0,0,0,0,0,0,0,0,0,0,0,0,0,0,0],"sum_hessian":[8.767403E4,3.915409E4,4.8519938E4,1.3145473E4,2.6008617E4,3.2675135E4,1.5844805E4,8.519611E3,4.625862E3,2.0021127E4,5.98749E3,8.438619E3,2.4236514E4,6.736913E3,9.107892E3,3.325219E3,5.194392E3,6.8961206E2,3.9362498E3,8.1393413E3,1.1881786E4,3.597225E3,2.3902651E3,3.042643E3,5.3959766E3,1.601685E4,8.219665E3,2.7016384E3,4.0352747E3,5.1223257E3,3.985566E3],"tree_param":{"num_deleted":"0","num_feature":"8","num_nodes":"31","size_leaf_vector":"1"}},{"base_weights":[3.4796886E-4,-4.334455E-1,5.1758504E-1,-7.6223034E-1,-2.088639E-1,8.01276E-1,2.6054433E-1,-1.0337826E0,-5.059493E-1,-6.26884E-1,-1.4222747E-1,5.9167635E-1,1.0430409E0,1.4654705E-1,5.2075785E-1,-3.5535906E-2,-2.6661362E-2,-1.1857644E-2,-2.2485182E-2,-1.2447435E-3,-2.5729695E-2,-3.3546166E-4,-6.8786805E-3,3.963785E-2,1.50686605E-2,3.477257E-2,2.6584767E-2,1.0078022E-2,3.2130852E-3,1.3609179E-2,2.6055014E-2],"categories":[],"categories_nodes":[],"categories_segments":[],"categories_sizes":[],"default_left":[0,0,0,0,0,0,0,0,0,0,0,0,0,0,0,0,0,0,0,0,0,0,0,0,0,0,0,0,0,0,0],"id":33,"left_children":[1,3,5,7,9,11,13,15,17,19,21,23,25,27,29,-1,-1,-1,-1,-1,-1,-1,-1,-1,-1,-1,-1,-1,-1,-1,-1],"loss_changes":[1.9548852E4,3.4987246E3,2.8976982E3,1.3378174E3,7.84194E2,9.5664355E2,6.1844714E2,2.0312207E2,2.664912E2,5.2289026E2,2.770741E2,6.5936743E2,1.5864941E2,1.0828696E2,1.4785217E2,0E0,0E0,0E0,0E0,0E0,0E0,0E0,0E0,0E0,0E0,0E0,0E0,0E0,0E0,0E0,0E0],"parents":[2147483647,0,0,1,1,2,2,3,3,4,4,5,5,6,6,7,7,8,8,9,9,10,10,11,11,12,12,13,13,14,14],"right_children":[2,4,6,8,10,12,14,16,18,20,22,24,26,28,30,-1,-1,-1,-1,-1,-1,-1,-1,-1,-1,-1,-1,-1,-1,-1,-1],"split_conditions":[8.58232E-5,-7.549001E-4,8E0,7E0,4E0,1.0049976E-3,9.4997784E-4,4E0,1.8073377E-3,1.18512515E-4,1.6612123E-4,2E0,5E0,1.8379389E-4,2.629792E-3,-3.5535906E-2,-2.6661362E-2,-1.1857644E-2,-2.2485182E-2,-1.2447435E-3,-2.5729695E-2,-3.3546166E-4,-6.8786805E-3,3.963785E-2,1.50686605E-2,3.477257E-2,2.6584767E-2,1.0078022E-2,3.2130852E-3,1.3609179E-2,2.6055014E-2],"split_indices":[0,0,7,7,7,1,0,7,1,1,1,7,7,5,1,0,0,0,0,0,0,0,0,0,0,0,0,0,0,0,0],"split_type":[0,0,0,0,0,0,0,0,0,0,0,0,0,0,0,0,0,0,0,0,0,0,0,0,0,0,0,0,0,0,0],"sum_hessian":[8.712416E4,4.738431E4,3.9739848E4,1.9229766E4,2.8154545E4,1.8889613E4,2.0850232E4,9.335234E3,9.894531E3,3.8698713E3,2.4284674E4,1.0119709E4,8.769904E3,1.4499633E4,6.3506006E3,4.5745225E3,4.7607114E3,6.804544E3,3.0899868E3,1.0945487E3,2.7753228E3,9.694163E3,1.4590511E4,1.1030222E3,9.0166875E3,5.0373857E3,3.7325186E3,2.498042E3,1.200159E4,5.3250967E3,1.0255035E3],"tree_param":{"num_deleted":"0","num_feature":"8","num_nodes":"31","size_leaf_vector":"1"}},{"base_weights":[-1.0580071E-3,-5.221672E-1,4.1064316E-1,-9.0438837E-1,-3.3222193E-1,2.1475103E-1,7.843206E-1,-1.0507174E0,-6.243719E-1,-2.166872E-1,-6.5311164E-1,7.413924E-1,1.6395383E-1,1.0916407E0,5.6758344E-1,-3.6604702E-2,-2.832132E-2,-3.862643E-2,-1.5286652E-2,-8.095277E-3,1.0122382E-3,-2.401177E-2,-1.3380612E-2,-1.6839543E-2,2.8505703E-2,1.703871E-3,9.164221E-3,3.6800247E-2,3.0095097E-2,1.3942686E-2,2.5885679E-2],"categories":[],"categories_nodes":[],"categories_segments":[],"categories_sizes":[],"default_left":[0,0,0,0,0,0,0,0,0,0,0,0,0,0,0,0,0,0,0,0,0,0,0,0,0,0,0,0,0,0,0],"id":34,"left_children":[1,3,5,7,9,11,13,15,17,19,21,23,25,27,29,-1,-1,-1,-1,-1,-1,-1,-1,-1,-1,-1,-1,-1,-1,-1,-1],"loss_changes":[1.8579562E4,2.7746582E3,3.5412231E3,5.192373E2,9.465337E2,8.4902747E2,1.1076475E3,1.4944434E2,3.311222E2,2.4995428E2,2.0580664E2,7.599718E2,4.390196E2,8.09668E1,2.9591602E2,0E0,0E0,0E0,0E0,0E0,0E0,0E0,0E0,0E0,0E0,0E0,0E0,0E0,0E0,0E0,0E0],"parents":[2147483647,0,0,1,1,2,2,3,3,4,4,5,5,6,6,7,7,8,8,9,9,10,10,11,11,12,12,13,13,14,14],"right_children":[2,4,6,8,10,12,14,16,18,20,22,24,26,28,30,-1,-1,-1,-1,-1,-1,-1,-1,-1,-1,-1,-1,-1,-1,-1,-1],"split_conditions":[-1.1444238E-4,6E0,8.675454E-4,-6.409021E-4,1.2201584E-3,3E0,6E0,3E0,2E0,6.17717E-4,1E1,0E0,3.1494914E-4,3E0,2.1405737E-3,-3.6604702E-2,-2.832132E-2,-3.862643E-2,-1.5286652E-2,-8.095277E-3,1.0122382E-3,-2.401177E-2,-1.3380612E-2,-1.6839543E-2,2.8505703E-2,1.703871E-3,9.164221E-3,3.6800247E-2,3.0095097E-2,1.3942686E-2,2.5885679E-2],"split_indices":[0,7,0,0,1,7,7,7,7,5,7,0,1,7,1,0,0,0,0,0,0,0,0,0,0,0,0,0,0,0,0],"split_type":[0,0,0,0,0,0,0,0,0,0,0,0,0,0,0,0,0,0,0,0,0,0,0,0,0,0,0,0,0,0,0],"sum_hessian":[8.659935E4,3.8221E4,4.837835E4,1.26871875E4,2.5533812E4,3.1740615E4,1.6637738E4,8.330923E3,4.356264E3,1.877547E4,6.7583403E3,2.791023E3,2.8949592E4,6.879289E3,9.758449E3,3.2145317E3,5.1163916E3,6.413937E2,3.7148706E3,1.5487956E4,3.2875156E3,3.9478281E3,2.810512E3,3.8531497E2,2.405708E3,1.6475703E4,1.2473889E4,2.7179607E3,4.161328E3,7.2397983E3,2.5186511E3],"tree_param":{"num_deleted":"0","num_feature":"8","num_nodes":"31","size_leaf_vector":"1"}},{"base_weights":[-6.533377E-4,-4.1415828E-1,4.9454826E-1,-1.9970639E-1,-7.393419E-1,8.7427324E-1,3.103572E-1,-6.085916E-1,-1.3512424E-1,-1.0119778E0,-4.8701578E-1,6.216249E-1,1.0658536E0,1.991775E-1,6.5842164E-1,-1.5696571E-3,-2.4874108E-2,-4.85013E-4,-6.6795754E-3,-3.4873784E-2,-2.6036229E-2,-1.2056741E-2,-2.3418268E-2,3.9198898E-2,1.4914422E-2,3.6291547E-2,2.9165018E-2,9.118129E-3,2.8035818E-3,2.4244802E-2,1.3331648E-2],"categories":[],"categories_nodes":[],"categories_segments":[],"categories_sizes":[],"default_left":[0,0,0,0,0,0,0,0,0,0,0,0,0,0,0,0,0,0,0,0,0,0,0,0,0,0,0,0,0,0,0],"id":35,"left_children":[1,3,5,7,9,11,13,15,17,19,21,23,25,27,29,-1,-1,-1,-1,-1,-1,-1,-1,-1,-1,-1,-1,-1,-1,-1,-1],"loss_changes":[1.7614668E4,3.2689546E3,2.7375586E3,7.459082E2,1.2810586E3,6.18167E2,1.019949E3,4.7266455E2,2.5403076E2,1.931416E2,2.4152881E2,4.6970117E2,9.680957E1,2.2126526E2,2.0415161E2,0E0,0E0,0E0,0E0,0E0,0E0,0E0,0E0,0E0,0E0,0E0,0E0,0E0,0E0,0E0,0E0],"parents":[2147483647,0,0,1,1,2,2,3,3,4,4,5,5,6,6,7,7,8,8,9,9,10,10,11,11,12,12,13,13,14,14],"right_children":[2,4,6,8,10,12,14,16,18,20,22,24,26,28,30,-1,-1,-1,-1,-1,-1,-1,-1,-1,-1,-1,-1,-1,-1,-1,-1],"split_conditions":[8.58232E-5,7.651044E-4,6E0,4E0,7E0,7.744074E-4,1.2341421E-3,1.18512515E-4,1.8509546E-4,4E0,2.1405737E-3,2E0,3E0,1.1E1,1E1,-1.5696571E-3,-2.4874108E-2,-4.85013E-4,-6.6795754E-3,-3.4873784E-2,-2.6036229E-2,-1.2056741E-2,-2.3418268E-2,3.9198898E-2,1.4914422E-2,3.6291547E-2,2.9165018E-2,9.118129E-3,2.8035818E-3,2.4244802E-2,1.3331648E-2],"split_indices":[0,1,7,7,7,1,1,1,1,7,1,7,7,7,7,0,0,0,0,0,0,0,0,0,0,0,0,0,0,0,0],"split_type":[0,0,0,0,0,0,0,0,0,0,0,0,0,0,0,0,0,0,0,0,0,0,0,0,0,0,0,0,0,0,0],"sum_hessian":[8.602043E4,4.687711E4,3.9143324E4,2.8249053E4,1.8628057E4,1.2784101E4,2.6359223E4,3.852094E3,2.4396959E4,8.952239E3,9.675816E3,5.5151665E3,7.268934E3,1.9979035E4,6.380187E3,1.093998E3,2.758096E3,1.034227E4,1.4054689E4,4.375747E3,4.5764927E3,7.502818E3,2.1729985E3,8.466295E2,4.668537E3,2.862052E3,4.406882E3,1.0034358E4,9.944677E3,3.7522944E3,2.6278928E3],"tree_param":{"num_deleted":"0","num_feature":"8","num_nodes":"31","size_leaf_vector":"1"}},{"base_weights":[1.346149E-3,-5.0169134E-1,3.89398E-1,-3.3797643E-1,-8.276577E-1,1.5247679E-1,6.8380034E-1,-3.979385E-1,-7.890053E-2,-7.2023016E-1,-1.0349358E0,3.0059451E-2,2.7093902E-1,5.383444E-1,9.335027E-1,-1.5856747E-2,-7.3759705E-3,-4.530316E-3,3.6499114E-4,-2.4881156E-2,-1.155782E-2,-3.259613E-2,-2.5365693E-2,-7.32253E-5,3.3068408E-3,1.7182799E-2,5.8515747E-3,1.8803382E-2,6.6061188E-3,3.0754913E-2,2.3148095E-2],"categories":[],"categories_nodes":[],"categories_segments":[],"categories_sizes":[],"default_left":[0,0,0,0,0,0,0,0,0,0,0,0,0,0,0,0,0,0,0,0,0,0,0,0,0,0,0,0,0,0,0],"id":36,"left_children":[1,3,5,7,9,11,13,15,17,19,21,23,25,27,29,-1,-1,-1,-1,-1,-1,-1,-1,-1,-1,-1,-1,-1,-1,-1,-1],"loss_changes":[1.6706393E4,1.9886621E3,3.369794E3,3.85406E2,2.7670215E2,3.8822937E2,7.819619E2,4.0008154E2,3.0632502E1,2.998252E2,4.063086E1,3.4307304E1,3.1151013E2,3.829348E2,1.1686865E2,0E0,0E0,0E0,0E0,0E0,0E0,0E0,0E0,0E0,0E0,0E0,0E0,0E0,0E0,0E0,0E0],"parents":[2147483647,0,0,1,1,2,2,3,3,4,4,5,5,6,6,7,7,8,8,9,9,10,10,11,11,12,12,13,13,14,14],"right_children":[2,4,6,8,10,12,14,16,18,20,22,24,26,28,30,-1,-1,-1,-1,-1,-1,-1,-1,-1,-1,-1,-1,-1,-1,-1,-1],"split_conditions":[-1.251817E-4,1.1653625E-3,6.053455E-4,5.840031E-4,2.4405196E-3,1.7632698E-4,1.6126906E-3,-4.3387932E-4,-5.397607E-4,7.3135237E-4,1.123731E-3,8.58232E-5,1.8379389E-4,6.3312385E-4,7.608944E-4,-1.5856747E-2,-7.3759705E-3,-4.530316E-3,3.6499114E-4,-2.4881156E-2,-1.155782E-2,-3.259613E-2,-2.5365693E-2,-7.32253E-5,3.3068408E-3,1.7182799E-2,5.8515747E-3,1.8803382E-2,6.6061188E-3,3.0754913E-2,2.3148095E-2],"split_indices":[0,1,1,5,1,1,0,0,0,5,5,0,5,5,5,0,0,0,0,0,0,0,0,0,0,0,0,0,0,0,0],"split_type":[0,0,0,0,0,0,0,0,0,0,0,0,0,0,0,0,0,0,0,0,0,0,0,0,0,0,0,0,0,0,0],"sum_hessian":[8.5582E4,3.7269145E4,4.831285E4,2.4810324E4,1.2458821E4,2.6770625E4,2.1542229E4,2.0146875E4,4.663448E3,8.208841E3,4.2499814E3,1.3166148E4,1.3604476E4,1.3614629E4,7.9275986E3,1.0836561E4,9.310314E3,2.602242E3,2.061206E3,6.1903784E3,2.0184619E3,3.336326E3,9.136554E2,9.368951E3,3.7971978E3,2.7320068E3,1.0872469E4,1.0652524E4,2.9621042E3,5.0584023E3,2.8691963E3],"tree_param":{"num_deleted":"0","num_feature":"8","num_nodes":"31","size_leaf_vector":"1"}},{"base_weights":[9.590746E-4,-3.9108303E-1,4.7058135E-1,-7.080101E-1,-1.8215261E-1,7.9543436E-1,2.587842E-1,-9.852601E-1,-4.5690334E-1,-7.026245E-1,-1.3389352E-1,5.979191E-1,1.0442549E0,1.5938623E-1,5.7659817E-1,-3.4301255E-2,-2.5086215E-2,-2.41965E-2,-1.1645455E-2,-2.6245054E-2,1.7372783E-2,-7.468675E-3,-1.0779015E-3,3.850948E-2,1.4966502E-2,3.4942906E-2,2.777348E-2,2.250511E-3,7.969662E-3,2.0889409E-2,1.0631263E-2],"categories":[],"categories_nodes":[],"categories_segments":[],"categories_sizes":[],"default_left":[0,0,0,0,0,0,0,0,0,0,0,0,0,0,0,0,0,0,0,0,0,0,0,0,0,0,0,0,0,0,0],"id":37,"left_children":[1,3,5,7,9,11,13,15,17,19,21,23,25,27,29,-1,-1,-1,-1,-1,-1,-1,-1,-1,-1,-1,-1,-1,-1,-1,-1],"loss_changes":[1.5653739E4,3.0682441E3,2.6613652E3,1.2812979E3,7.014191E2,7.4967285E2,7.39692E2,2.052373E2,2.3186584E2,5.235537E2,2.881075E2,5.775032E2,9.535596E1,1.5993408E2,1.4817029E2,0E0,0E0,0E0,0E0,0E0,0E0,0E0,0E0,0E0,0E0,0E0,0E0,0E0,0E0,0E0,0E0],"parents":[2147483647,0,0,1,1,2,2,3,3,4,4,5,5,6,6,7,7,8,8,9,9,10,10,11,11,12,12,13,13,14,14],"right_children":[2,4,6,8,10,12,14,16,18,20,22,24,26,28,30,-1,-1,-1,-1,-1,-1,-1,-1,-1,-1,-1,-1,-1,-1,-1,-1],"split_conditions":[8.58232E-5,-7.549001E-4,7E0,7E0,3E0,1.0612406E-3,1.186914E-3,4E0,-2.4424645E-3,0E0,-2.7307583E-4,2E0,4E0,4.881926E-4,1.1E1,-3.4301255E-2,-2.5086215E-2,-2.41965E-2,-1.1645455E-2,-2.6245054E-2,1.7372783E-2,-7.468675E-3,-1.0779015E-3,3.850948E-2,1.4966502E-2,3.4942906E-2,2.777348E-2,2.250511E-3,7.969662E-3,2.0889409E-2,1.0631263E-2],"split_indices":[0,0,7,7,7,0,0,7,0,0,0,7,7,0,7,0,0,0,0,0,0,0,0,0,0,0,0,0,0,0,0],"split_type":[0,0,0,0,0,0,0,0,0,0,0,0,0,0,0,0,0,0,0,0,0,0,0,0,0,0,0,0,0,0,0],"sum_hessian":[8.502105E4,4.633806E4,3.8682984E4,1.84098E4,2.792826E4,1.5265742E4,2.3417244E4,8.748048E3,9.661753E3,2.3686736E3,2.5559586E4,8.512149E3,6.753593E3,1.7839385E4,5.5778584E3,4.2417456E3,4.5063027E3,1.585284E3,8.0764688E3,2.0883958E3,2.8027795E2,1.1753294E4,1.3806291E4,1.0727047E3,7.4394443E3,3.3436409E3,3.4099521E3,9.945312E3,7.8940737E3,3.623617E3,1.9542415E3],"tree_param":{"num_deleted":"0","num_feature":"8","num_nodes":"31","size_leaf_vector":"1"}},{"base_weights":[1.4729998E-3,-3.824698E-1,4.6181163E-1,-7.513957E-1,-2.1158172E-1,8.3913463E-1,2.831423E-1,-1.0109262E0,-4.9526632E-1,-5.613393E-1,-1.2723935E-1,4.0657812E-1,9.503337E-1,1.7431284E-1,6.0869306E-1,-3.4600165E-2,-2.621185E-2,-1.8612538E-2,-8.5756015E-3,-2.3170048E-2,-3.936061E-3,-7.6985047E-3,-1.7454086E-3,3.8873386E-2,7.704357E-3,3.460374E-2,2.4806464E-2,8.300686E-3,2.157194E-3,2.2556746E-2,1.2286143E-2],"categories":[],"categories_nodes":[],"categories_segments":[],"categories_sizes":[],"default_left":[0,0,0,0,0,0,0,0,0,0,0,0,0,0,0,0,0,0,0,0,0,0,0,0,0,0,0,0,0,0,0],"id":38,"left_children":[1,3,5,7,9,11,13,15,17,19,21,23,25,27,29,-1,-1,-1,-1,-1,-1,-1,-1,-1,-1,-1,-1,-1,-1,-1,-1],"loss_changes":[1.4949805E4,2.9074277E3,2.5929512E3,9.6997754E2,9.2977014E2,5.9414844E2,9.248169E2,1.4066064E2,1.9245044E2,5.5569006E2,2.2690616E2,3.3652438E2,2.4559277E2,2.0511914E2,1.8620972E2,0E0,0E0,0E0,0E0,0E0,0E0,0E0,0E0,0E0,0E0,0E0,0E0,0E0,0E0,0E0,0E0],"parents":[2147483647,0,0,1,1,2,2,3,3,4,4,5,5,6,6,7,7,8,8,9,9,10,10,11,11,12,12,13,13,14,14],"right_children":[2,4,6,8,10,12,14,16,18,20,22,24,26,28,30,-1,-1,-1,-1,-1,-1,-1,-1,-1,-1,-1,-1,-1,-1,-1,-1],"split_conditions":[8.58232E-5,-9.7198196E-4,6E0,7E0,5E0,3.6615191E-4,1.186914E-3,4E0,1.1E1,-1.907839E-4,-4.3387932E-4,2E0,3E0,1.1E1,1E1,-3.4600165E-2,-2.621185E-2,-1.8612538E-2,-8.5756015E-3,-2.3170048E-2,-3.936061E-3,-7.6985047E-3,-1.7454086E-3,3.8873386E-2,7.704357E-3,3.460374E-2,2.4806464E-2,8.300686E-3,2.157194E-3,2.2556746E-2,1.2286143E-2],"split_indices":[0,0,7,7,7,0,0,7,7,0,0,7,7,7,7,0,0,0,0,0,0,0,0,0,0,0,0,0,0,0,0],"split_type":[0,0,0,0,0,0,0,0,0,0,0,0,0,0,0,0,0,0,0,0,0,0,0,0,0,0,0,0,0,0,0],"sum_hessian":[8.458266E4,4.6118203E4,3.8464453E4,1.4598491E4,3.1519709E4,1.2359446E4,2.6105006E4,7.2496377E3,7.348854E3,6.1229443E3,2.5396766E4,2.5284834E3,9.830963E3,1.9565818E4,6.539188E3,3.553582E3,3.6960557E3,4.598616E3,2.7502375E3,4.1073613E3,2.015583E3,8.837531E3,1.6559234E4,3.6337546E2,2.165108E3,3.7131252E3,6.117838E3,9.783476E3,9.782343E3,3.8023835E3,2.7368044E3],"tree_param":{"num_deleted":"0","num_feature":"8","num_nodes":"31","size_leaf_vector":"1"}},{"base_weights":[-1.5495885E-3,-4.694708E-1,3.5799676E-1,-8.4967226E-1,-2.8698355E-1,1.9386193E-1,7.4797475E-1,-6.7065907E-1,-1.083691E0,-2.0399053E-1,-6.789119E-1,7.055793E-1,1.4566506E-1,1.0518229E0,5.3439385E-1,-3.7451085E-2,-1.7007362E-2,-3.4763716E-2,-2.923125E-2,-1.0110915E-2,-3.3050578E-3,-2.6195236E-2,-1.4956437E-2,-1.5368523E-2,2.7291872E-2,1.1726271E-3,8.131975E-3,2.8683104E-2,3.5046287E-2,2.0633006E-2,1.0209652E-2],"categories":[],"categories_nodes":[],"categories_segments":[],"categories_sizes":[],"default_left":[0,0,0,0,0,0,0,0,0,0,0,0,0,0,0,0,0,0,0,0,0,0,0,0,0,0,0,0,0,0,0],"id":39,"left_children":[1,3,5,7,9,11,13,15,17,19,21,23,25,27,29,-1,-1,-1,-1,-1,-1,-1,-1,-1,-1,-1,-1,-1,-1,-1,-1],"loss_changes":[1.4152312E4,2.5357603E3,3.0446816E3,4.9584863E2,8.0324695E2,8.256118E2,9.138301E2,4.0198315E2,4.103418E1,2.543985E2,1.5077881E2,7.169175E2,4.0894232E2,6.3664062E1,2.4610791E2,0E0,0E0,0E0,0E0,0E0,0E0,0E0,0E0,0E0,0E0,0E0,0E0,0E0,0E0,0E0,0E0],"parents":[2147483647,0,0,1,1,2,2,3,3,4,4,5,5,6,6,7,7,8,8,9,9,10,10,11,11,12,12,13,13,14,14],"right_children":[2,4,6,8,10,12,14,16,18,20,22,24,26,28,30,-1,-1,-1,-1,-1,-1,-1,-1,-1,-1,-1,-1,-1,-1,-1,-1],"split_conditions":[-1.251817E-4,6E0,9.702786E-4,1.1653625E-3,1.6058483E-3,3E0,6E0,2E0,4E0,1E1,9E0,0E0,3.0432324E-4,2.018872E-3,1E1,-3.7451085E-2,-1.7007362E-2,-3.4763716E-2,-2.923125E-2,-1.0110915E-2,-3.3050578E-3,-2.6195236E-2,-1.4956437E-2,-1.5368523E-2,2.7291872E-2,1.1726271E-3,8.131975E-3,2.8683104E-2,3.5046287E-2,2.0633006E-2,1.0209652E-2],"split_indices":[0,7,0,1,1,7,7,7,7,7,7,0,1,1,7,0,0,0,0,0,0,0,0,0,0,0,0,0,0,0,0],"split_type":[0,0,0,0,0,0,0,0,0,0,0,0,0,0,0,0,0,0,0,0,0,0,0,0,0,0,0,0,0,0,0],"sum_hessian":[8.411811E4,3.6550375E4,4.7567734E4,1.1852575E4,2.4697799E4,3.3478656E4,1.4089076E4,6.7177124E3,5.1348623E3,2.0383088E4,4.314711E3,2.8806365E3,3.0598021E4,5.813974E3,8.275103E3,1.0210442E3,5.6966685E3,3.0381016E3,2.0967607E3,8.428642E3,1.1954446E4,2.0754683E3,2.2392427E3,4.1333884E2,2.4672976E3,1.6541121E4,1.40569E4,3.1952944E3,2.61868E3,4.6207944E3,3.6543076E3],"tree_param":{"num_deleted":"0","num_feature":"8","num_nodes":"31","size_leaf_vector":"1"}},{"base_weights":[-1.3049265E-3,-4.576219E-1,3.48748E-1,-8.305655E-1,-2.8092882E-1,1.8701416E-1,7.3668414E-1,-6.4789593E-1,-1.0723633E0,-1.84463E-1,-6.1196035E-1,5.7552975E-1,1.254628E-1,1.0441182E0,5.225922E-1,-3.71754E-2,-1.6316812E-2,-3.453633E-2,-2.8742949E-2,-7.085079E-3,1.5336934E-3,-2.4487402E-2,-1.32161025E-2,-6.277563E-3,2.2308454E-2,1.667553E-3,8.270284E-3,3.522968E-2,2.8789427E-2,1.3395054E-2,2.7371991E-2],"categories":[],"categories_nodes":[],"categories_segments":[],"categories_sizes":[],"default_left":[0,0,0,0,0,0,0,0,0,0,0,0,0,0,0,0,0,0,0,0,0,0,0,0,0,0,0,0,0,0,0],"id":40,"left_children":[1,3,5,7,9,11,13,15,17,19,21,23,25,27,29,-1,-1,-1,-1,-1,-1,-1,-1,-1,-1,-1,-1,-1,-1,-1,-1],"loss_changes":[1.3359982E4,2.3923535E3,2.9694702E3,5.148281E2,7.866465E2,7.987677E2,9.1605176E2,4.0834302E2,4.4137207E1,2.324253E2,1.9431787E2,6.0275195E2,3.026839E2,6.1737305E1,2.4314258E2,0E0,0E0,0E0,0E0,0E0,0E0,0E0,0E0,0E0,0E0,0E0,0E0,0E0,0E0,0E0,0E0],"parents":[2147483647,0,0,1,1,2,2,3,3,4,4,5,5,6,6,7,7,8,8,9,9,10,10,11,11,12,12,13,13,14,14],"right_children":[2,4,6,8,10,12,14,16,18,20,22,24,26,28,30,-1,-1,-1,-1,-1,-1,-1,-1,-1,-1,-1,-1,-1,-1,-1,-1],"split_conditions":[-1.251817E-4,6E0,9.702786E-4,1.1653625E-3,1.3541173E-3,4E0,6E0,2E0,4E0,6.224514E-4,9E0,2.468302E-5,4.5019167E-4,3E0,2.791549E-3,-3.71754E-2,-1.6316812E-2,-3.453633E-2,-2.8742949E-2,-7.085079E-3,1.5336934E-3,-2.4487402E-2,-1.32161025E-2,-6.277563E-3,2.2308454E-2,1.667553E-3,8.270284E-3,3.522968E-2,2.8789427E-2,1.3395054E-2,2.7371991E-2],"split_indices":[0,7,0,1,1,7,7,7,7,5,7,0,1,7,1,0,0,0,0,0,0,0,0,0,0,0,0,0,0,0,0],"split_type":[0,0,0,0,0,0,0,0,0,0,0,0,0,0,0,0,0,0,0,0,0,0,0,0,0,0,0,0,0,0,0],"sum_hessian":[8.3636375E4,3.6307223E4,4.7329156E4,1.1670584E4,2.4636639E4,3.340416E4,1.3924993E4,6.650243E3,5.0203403E3,1.9078525E4,5.558113E3,4.5672266E3,2.8836936E4,5.714766E3,8.210228E3,9.931229E2,5.6571206E3,2.9651697E3,2.0551707E3,1.5644809E4,3.433717E3,2.53426E3,3.023853E3,8.056138E2,3.761613E3,1.96823E4,9.154634E3,2.2435745E3,3.4711917E3,6.8711294E3,1.3390979E3],"tree_param":{"num_deleted":"0","num_feature":"8","num_nodes":"31","size_leaf_vector":"1"}},{"base_weights":[-2.9803632E-4,-4.484842E-1,3.4291798E-1,-8.1917024E-1,-2.744735E-1,1.8056907E-1,7.1251476E-1,-6.1942005E-1,-1.0391225E0,-1.9208248E-1,-6.5076846E-1,6.7558926E-1,1.3546748E-1,1.0223541E0,5.0389624E-1,-3.6953654E-2,-1.54912695E-2,-3.3961367E-2,-2.7178945E-2,-9.8004015E-3,-2.9439244E-3,-2.5394278E-2,-1.4267436E-2,-1.5143439E-2,2.6514001E-2,1.661301E-3,8.499379E-3,3.4997582E-2,2.7910005E-2,1.2037542E-2,2.3392206E-2],"categories":[],"categories_nodes":[],"categories_segments":[],"categories_sizes":[],"default_left":[0,0,0,0,0,0,0,0,0,0,0,0,0,0,0,0,0,0,0,0,0,0,0,0,0,0,0,0,0,0,0],"id":41,"left_children":[1,3,5,7,9,11,13,15,17,19,21,23,25,27,29,-1,-1,-1,-1,-1,-1,-1,-1,-1,-1,-1,-1,-1,-1,-1,-1],"loss_changes":[1.2796732E4,2.3269321E3,2.8267803E3,5.0571826E2,7.611294E2,7.3075745E2,9.2886914E2,3.8064722E2,6.682666E1,2.547135E2,1.5079822E2,6.721764E2,3.552489E2,7.568945E1,2.4303638E2,0E0,0E0,0E0,0E0,0E0,0E0,0E0,0E0,0E0,0E0,0E0,0E0,0E0,0E0,0E0,0E0],"parents":[2147483647,0,0,1,1,2,2,3,3,4,4,5,5,6,6,7,7,8,8,9,9,10,10,11,11,12,12,13,13,14,14],"right_children":[2,4,6,8,10,12,14,16,18,20,22,24,26,28,30,-1,-1,-1,-1,-1,-1,-1,-1,-1,-1,-1,-1,-1,-1,-1,-1],"split_conditions":[-1.251817E-4,6E0,9.297665E-4,1.017046E-3,1.5659E-3,3E0,6E0,2E0,4E0,1E1,9E0,0E0,4.008245E-4,3E0,2.1405737E-3,-3.6953654E-2,-1.54912695E-2,-3.3961367E-2,-2.7178945E-2,-9.8004015E-3,-2.9439244E-3,-2.5394278E-2,-1.4267436E-2,-1.5143439E-2,2.6514001E-2,1.661301E-3,8.499379E-3,3.4997582E-2,2.7910005E-2,1.2037542E-2,2.3392206E-2],"split_indices":[0,7,1,1,1,7,7,7,7,7,7,0,0,7,1,0,0,0,0,0,0,0,0,0,0,0,0,0,0,0,0],"split_type":[0,0,0,0,0,0,0,0,0,0,0,0,0,0,0,0,0,0,0,0,0,0,0,0,0,0,0,0,0,0,0],"sum_hessian":[8.3188375E4,3.607708E4,4.71113E4,1.1524124E4,2.4552953E4,3.2734047E4,1.4377253E4,6.0414146E3,5.4827095E3,2.0143893E4,4.4090605E3,2.7322114E3,3.0001836E4,5.7835884E3,8.593665E3,8.6859674E2,5.172818E3,3.224801E3,2.2579082E3,8.279702E3,1.186419E4,2.0807517E3,2.328309E3,4.0946783E2,2.3227437E3,1.946086E4,1.0540977E4,2.248165E3,3.5354233E3,6.264882E3,2.328783E3],"tree_param":{"num_deleted":"0","num_feature":"8","num_nodes":"31","size_leaf_vector":"1"}},{"base_weights":[2.0841672E-4,-4.4936827E-1,3.2580763E-1,-8.1968606E-1,-2.7517742E-1,1.8890063E-1,7.582873E-1,-1.0558879E0,-6.3823587E-1,-6.1674863E-1,-1.8906543E-1,5.589153E-1,1.3006073E-1,1.0040257E0,5.070588E-1,-3.411234E-2,-2.817691E-2,-3.6636606E-2,-1.6150357E-2,-2.4099322E-2,-1.3654433E-2,-7.272521E-3,1.12799E-3,-7.7146087E-3,2.2374632E-2,1.8154368E-3,8.460808E-3,3.3867978E-2,2.652362E-2,1.2966103E-2,2.5931224E-2],"categories":[],"categories_nodes":[],"categories_segments":[],"categories_sizes":[],"default_left":[0,0,0,0,0,0,0,0,0,0,0,0,0,0,0,0,0,0,0,0,0,0,0,0,0,0,0,0,0,0,0],"id":42,"left_children":[1,3,5,7,9,11,13,15,17,19,21,23,25,27,29,-1,-1,-1,-1,-1,-1,-1,-1,-1,-1,-1,-1,-1,-1,-1,-1],"loss_changes":[1.2100365E4,2.2394985E3,2.8384707E3,4.753579E2,6.944867E2,7.9275745E2,7.111343E2,4.4621582E1,3.6529126E2,1.4297205E2,2.2810583E2,7.622258E2,3.3205798E2,8.626074E1,1.5213525E2,0E0,0E0,0E0,0E0,0E0,0E0,0E0,0E0,0E0,0E0,0E0,0E0,0E0,0E0,0E0,0E0],"parents":[2147483647,0,0,1,1,2,2,3,3,4,4,5,5,6,6,7,7,8,8,9,9,10,10,11,11,12,12,13,13,14,14],"right_children":[2,4,6,8,10,12,14,16,18,20,22,24,26,28,30,-1,-1,-1,-1,-1,-1,-1,-1,-1,-1,-1,-1,-1,-1,-1,-1],"split_conditions":[-1.5224355E-4,6E0,1.1353208E-3,-1.1680846E-3,-1.4831393E-3,4E0,7E0,4E0,2E0,9E0,6.224514E-4,2.468302E-5,4.881926E-4,4E0,2.8485535E-3,-3.411234E-2,-2.817691E-2,-3.6636606E-2,-1.6150357E-2,-2.4099322E-2,-1.3654433E-2,-7.272521E-3,1.12799E-3,-7.7146087E-3,2.2374632E-2,1.8154368E-3,8.460808E-3,3.3867978E-2,2.652362E-2,1.2966103E-2,2.5931224E-2],"split_indices":[0,7,0,0,0,7,7,7,7,7,5,0,0,7,0,0,0,0,0,0,0,0,0,0,0,0,0,0,0,0,0],"split_type":[0,0,0,0,0,0,0,0,0,0,0,0,0,0,0,0,0,0,0,0,0,0,0,0,0,0,0,0,0,0,0],"sum_hessian":[8.266104E4,3.472018E4,4.794086E4,1.110596E4,2.3614219E4,3.6414742E4,1.1526118E4,4.8229243E3,6.283036E3,4.7533706E3,1.8860848E4,4.9950264E3,3.1419715E4,5.8252095E3,5.700909E3,2.8386E3,1.9843239E3,9.1743713E2,5.365599E3,2.204448E3,2.5489226E3,1.5267214E4,3.5936338E3,9.3076025E2,4.064266E3,2.155612E4,9.863595E3,2.8489753E3,2.9762341E3,4.7152935E3,9.856154E2],"tree_param":{"num_deleted":"0","num_feature":"8","num_nodes":"31","size_leaf_vector":"1"}},{"base_weights":[-6.617075E-4,-3.307542E-1,4.214049E-1,-1.4902069E-1,-6.394894E-1,6.931869E-1,1.8936372E-1,-6.024197E-1,-1.0950352E-1,-9.201027E-1,-4.0022242E-1,5.2736E-1,9.794021E-1,1.10986926E-1,4.3844122E-1,-2.4121156E-2,1.4949963E-2,-1.0322391E-3,-6.515252E-3,-3.2645755E-2,-2.3039808E-2,-1.5688496E-2,-6.5377024E-3,3.6984846E-2,1.3439567E-2,3.27488E-2,2.5018582E-2,6.217782E-3,1.2392515E-3,1.1137321E-2,2.3721935E-2],"categories":[],"categories_nodes":[],"categories_segments":[],"categories_sizes":[],"default_left":[0,0,0,0,0,0,0,0,0,0,0,0,0,0,0,0,0,0,0,0,0,0,0,0,0,0,0,0,0,0,0],"id":43,"left_children":[1,3,5,7,9,11,13,15,17,19,21,23,25,27,29,-1,-1,-1,-1,-1,-1,-1,-1,-1,-1,-1,-1,-1,-1,-1,-1],"loss_changes":[1.1454829E4,2.5885015E3,2.2754048E3,5.202941E2,1.1473896E3,7.8820264E2,3.799596E2,5.170897E2,2.1600558E2,2.0030078E2,2.0636401E2,5.8874805E2,9.857764E1,9.932486E1,1.0999432E2,0E0,0E0,0E0,0E0,0E0,0E0,0E0,0E0,0E0,0E0,0E0,0E0,0E0,0E0,0E0,0E0],"parents":[2147483647,0,0,1,1,2,2,3,3,4,4,5,5,6,6,7,7,8,8,9,9,10,10,11,11,12,12,13,13,14,14],"right_children":[2,4,6,8,10,12,14,16,18,20,22,24,26,28,30,-1,-1,-1,-1,-1,-1,-1,-1,-1,-1,-1,-1,-1,-1,-1,-1],"split_conditions":[1.1263386E-4,7.651044E-4,8E0,3E0,7E0,1.2480868E-3,1.1391507E-3,0E0,2.9908703E-4,4E0,1.1E1,2E0,5E0,3.1035193E-4,2.8485535E-3,-2.4121156E-2,1.4949963E-2,-1.0322391E-3,-6.515252E-3,-3.2645755E-2,-2.3039808E-2,-1.5688496E-2,-6.5377024E-3,3.6984846E-2,1.3439567E-2,3.27488E-2,2.5018582E-2,6.217782E-3,1.2392515E-3,1.1137321E-2,2.3721935E-2],"split_indices":[0,1,7,7,7,1,1,0,1,7,7,7,7,5,0,0,0,0,0,0,0,0,0,0,0,0,0,0,0,0,0],"split_type":[0,0,0,0,0,0,0,0,0,0,0,0,0,0,0,0,0,0,0,0,0,0,0,0,0,0,0,0,0,0,0],"sum_hessian":[8.221695E4,4.6135348E4,3.6081605E4,2.9041738E4,1.709361E4,1.6616857E4,1.9464748E4,2.3271387E3,2.67146E4,7.865764E3,9.227846E3,1.0522939E4,6.093918E3,1.4806925E4,4.6578237E3,1.9671044E3,3.6003442E2,1.5738853E4,1.0975748E4,3.7336814E3,4.132083E3,5.513904E3,3.7139417E3,1.0627601E3,9.46018E3,3.4361648E3,2.657753E3,6.2162153E3,8.590709E3,3.913417E3,7.444066E2],"tree_param":{"num_deleted":"0","num_feature":"8","num_nodes":"31","size_leaf_vector":"1"}},{"base_weights":[-2.12511E-3,-2.4341197E-1,2.0470765E-1,-1.1865896E-1,-5.4732084E-1,1.0289682E-1,5.389083E-1,-4.6408765E-2,-2.2467929E-1,-4.4806677E-1,-8.136319E-1,4.1254748E-2,2.085395E-1,1.8236758E-1,6.0685027E-1,-5.054651E-3,-4.2029598E-4,-1.21267E-2,-3.9326353E-3,-1.625979E-2,-5.486087E-3,-2.6585836E-2,-1.2928937E-2,7.2915475E-3,7.4441126E-4,